<?xml version="1.0"?>
<opencv_storage>
<opencv_ml_svm>
  <format>3</format>
  <svmType>C_SVC</svmType>
  <kernel>
    <type>INTER</type>
    <gamma>1.</gamma></kernel>
  <C>10.</C>
  <term_criteria><epsilon>1.1920928955078125e-07</epsilon>
    <iterations>1000</iterations></term_criteria>
  <var_count>30</var_count>
  <class_count>5</class_count>
  <class_labels type_id="opencv-matrix">
    <rows>5</rows>
    <cols>1</cols>
    <dt>i</dt>
    <data>
      0 1 2 3 4</data></class_labels>
  <sv_total>685</sv_total>
  <support_vectors>
    <_>
      2.48172395e-02 7.19638169e-02 7.33862668e-02 1.55812204e-02
      6.05911985e-02 6.15212694e-02 7.94973075e-02 7.84880221e-02
      3.36986296e-02 7.06225932e-02 7.33061731e-02 2.50159297e-02
      5.00339009e-02 1.50259398e-02 5.01557216e-02 5.23120016e-02
      3.06113791e-02 4.43419889e-02 4.24063802e-02 6.07048301e-03
      4.26061302e-02 4.46159691e-02 2.40764096e-02 4.01066095e-02
      3.63063291e-02 1.96591094e-02 4.06849794e-02 3.76419909e-02
      3.25286500e-02 4.30423282e-02</_>
    <_>
      5.13402782e-02 2.99403109e-02 5.24605103e-02 3.36609706e-02
      3.09130996e-02 4.57020402e-02 4.34552990e-02 1.78168193e-02
      4.68465984e-02 4.42570783e-02 2.66374592e-02 4.68704589e-02
      4.69950587e-02 1.32374996e-02 4.76601794e-02 4.63173687e-02
      1.67172309e-02 4.54789400e-02 4.77991104e-02 4.41438798e-03
      4.77552004e-02 4.52868007e-02 1.72544699e-02 4.33169007e-02
      4.49975505e-02 1.71743296e-02 4.77434918e-02 3.96754891e-02
      2.91974209e-02 4.35683802e-02</_>
    <_>
      5.40908501e-02 2.07953509e-02 5.17468005e-02 3.67204808e-02
      2.06859708e-02 4.21413817e-02 9.14914310e-02 9.26309377e-02
      2.18366701e-02 7.34483972e-02 7.59799331e-02 2.02734396e-02
      6.11870885e-02 2.19298992e-02 5.95204197e-02 5.75350784e-02
      3.62028293e-02 4.65587005e-02 5.68154603e-02 1.76766999e-02
      5.46019189e-02 5.23312911e-02 3.35861109e-02 4.31782901e-02
      4.57280502e-02 2.66360696e-02 4.81198989e-02 4.23390009e-02
      3.90217602e-02 4.45487015e-02</_>
    <_>
      2.80545391e-02 8.03250670e-02 8.46605003e-02 2.87906993e-02
      7.54060894e-02 7.34255463e-02 7.98993632e-02 8.26885998e-02
      3.33034918e-02 6.99426308e-02 7.50480369e-02 2.75511108e-02
      8.76344666e-02 8.53165835e-02 2.01481208e-02 7.60434419e-02
      7.60328621e-02 4.02093679e-03 7.95492902e-02 8.05981830e-02
      3.20194885e-02 6.66762814e-02 7.12947473e-02 2.59824302e-02
      5.75146489e-02 7.16770366e-02 5.03302515e-02 4.66579013e-02
      6.67791516e-02 4.85060699e-02</_>
    <_>
      3.56967784e-02 3.40404212e-02 3.82191017e-02 1.76108405e-02
      3.63100395e-02 4.02274206e-02 4.23790105e-02 2.00754907e-02
      4.67598587e-02 4.50352617e-02 3.00189108e-02 4.62045595e-02
      4.71803285e-02 1.09779201e-02 4.84373607e-02 4.79723401e-02
      2.19276007e-02 4.48403284e-02 5.01289293e-02 1.17808701e-02
      4.93301488e-02 4.84418198e-02 2.94462591e-02 4.12841216e-02
      4.24040705e-02 2.28250809e-02 4.57191691e-02 3.98689583e-02
      3.54295708e-02 4.30351608e-02</_>
    <_>
      3.17312405e-02 6.68319315e-02 7.30998069e-02 2.29717903e-02
      6.35609403e-02 6.51574433e-02 8.23080167e-02 8.87514576e-02
      3.89913805e-02 7.02269822e-02 7.78725371e-02 3.37080397e-02
      9.29154530e-02 9.22402814e-02 1.34032397e-02 7.82467723e-02
      7.82972872e-02 3.48314503e-03 8.27164724e-02 8.56228396e-02
      2.73265596e-02 6.82609379e-02 7.27821365e-02 2.54150908e-02
      5.76614402e-02 7.86664113e-02 5.48987016e-02 4.56149206e-02
      6.95997775e-02 5.26039116e-02</_>
    <_>
      4.89042699e-02 9.99095570e-03 4.79702689e-02 3.63338999e-02
      1.60049405e-02 3.96213494e-02 4.04397883e-02 2.35522706e-02
      4.58534993e-02 4.19146717e-02 2.50958297e-02 4.59864512e-02
      4.26696092e-02 1.53905796e-02 4.27109487e-02 4.37041111e-02
      1.41949700e-02 4.37073112e-02 4.13775593e-02 1.30254803e-02
      3.95469405e-02 4.02953811e-02 1.02193300e-02 4.01805304e-02
      3.59598994e-02 1.65921897e-02 3.84591706e-02 3.49198394e-02
      2.33759098e-02 4.04348895e-02</_>
    <_>
      3.62091698e-02 3.94273587e-02 4.29088213e-02 1.77949592e-02
      3.99248302e-02 4.36603613e-02 3.97802182e-02 2.21391097e-02
      4.48958389e-02 4.55613807e-02 3.05900406e-02 4.60917205e-02
      4.34435196e-02 1.24022104e-02 4.44113500e-02 4.49763387e-02
      1.74944308e-02 4.36863713e-02 4.10722382e-02 9.38558672e-03
      4.02107798e-02 4.06366214e-02 1.29738599e-02 3.99137586e-02
      3.43449116e-02 1.77928898e-02 3.82158905e-02 3.45370583e-02
      2.53881495e-02 4.02127504e-02</_>
    <_>
      1.75182205e-02 8.28103274e-02 8.39223415e-02 1.65353492e-02
      6.60711080e-02 6.60845563e-02 9.20212269e-02 9.59347114e-02
      3.07408907e-02 7.34993294e-02 7.83510804e-02 2.78202891e-02
      9.72642004e-02 9.36158225e-02 2.82872599e-02 7.92042464e-02
      7.79591128e-02 1.59527492e-02 8.27026069e-02 6.99095279e-02
      5.04022911e-02 6.63929507e-02 6.17349595e-02 3.60051095e-02
      6.47035614e-02 5.83355092e-02 5.61682396e-02 4.89785299e-02
      5.26450910e-02 4.71285209e-02</_>
    <_>
      4.48739491e-02 1.37241399e-02 4.40549999e-02 3.24034914e-02
      1.04804998e-02 3.40496302e-02 4.65746112e-02 2.16746908e-02
      5.06339893e-02 4.80166599e-02 3.29515599e-02 4.76425700e-02
      4.80389893e-02 1.11069698e-02 4.92921509e-02 4.93150391e-02
      2.34500207e-02 4.55481187e-02 4.13540713e-02 6.77255308e-03
      4.11683992e-02 4.23417017e-02 1.65583193e-02 4.06382494e-02
      3.37114893e-02 1.80000309e-02 3.79389897e-02 3.51316705e-02
      2.64799204e-02 4.07325290e-02</_>
    <_>
      2.85876207e-02 9.16045904e-02 9.50337499e-02 3.10734492e-02
      7.78526589e-02 7.56064132e-02 8.69132578e-02 9.29644033e-02
      3.77165005e-02 7.19628185e-02 7.90234134e-02 3.26955691e-02
      9.64315236e-02 9.54644829e-02 1.36228502e-02 7.93181881e-02
      7.93218166e-02 7.61590374e-04 8.48856792e-02 8.55760574e-02
      3.27957198e-02 6.85642436e-02 7.26807266e-02 2.57554203e-02
      6.00416586e-02 7.68274665e-02 5.69458716e-02 4.65708412e-02
      6.90485016e-02 5.25304489e-02</_>
    <_>
      4.52019311e-02 2.28012092e-02 4.27227393e-02 2.89999098e-02
      2.51193307e-02 3.82448696e-02 3.91342416e-02 1.80846695e-02
      4.30951789e-02 4.27625515e-02 2.74361596e-02 4.51350212e-02
      4.09229100e-02 1.23738796e-02 4.16534282e-02 4.37459983e-02
      1.66059192e-02 4.27228697e-02 3.78284603e-02 1.09248096e-02
      3.65374796e-02 3.90170403e-02 1.17246201e-02 3.86367217e-02
      3.13893184e-02 1.76066495e-02 3.47786509e-02 3.30232494e-02
      2.38019302e-02 3.90987694e-02</_>
    <_>
      3.93250994e-02 6.11050688e-02 6.82082176e-02 2.41293609e-02
      5.35228401e-02 5.82252592e-02 4.29348312e-02 2.11526901e-02
      4.73416708e-02 4.66871299e-02 3.22344303e-02 4.67602313e-02
      4.44392003e-02 9.02394392e-03 4.53092717e-02 4.74302582e-02
      2.17432491e-02 4.44876999e-02 4.04763110e-02 8.42213165e-03
      4.04692516e-02 4.18902412e-02 1.62604004e-02 4.02048714e-02
      3.36212404e-02 2.11264603e-02 3.93864103e-02 3.48079614e-02
      2.64287498e-02 4.01362404e-02</_>
    <_>
      3.58465686e-02 7.08984882e-02 7.88648725e-02 2.66680699e-02
      6.48891628e-02 6.73344433e-02 8.59269276e-02 9.22031626e-02
      3.43257710e-02 7.22577572e-02 7.86496475e-02 3.20155993e-02
      9.59640592e-02 9.58228335e-02 5.51694911e-03 7.98605233e-02
      7.95662329e-02 6.85454486e-03 8.58308300e-02 9.10024494e-02
      3.11576296e-02 6.92775473e-02 7.49606416e-02 2.98686605e-02
      5.84845394e-02 8.31786171e-02 5.99010512e-02 4.53770012e-02
      7.18763694e-02 5.58249913e-02</_>
    <_>
      4.52396497e-02 3.72985899e-02 4.58818413e-02 2.60097198e-02
      3.16016302e-02 4.06897217e-02 9.00928974e-02 9.33089629e-02
      2.48065293e-02 7.22556487e-02 7.61839822e-02 2.43386999e-02
      4.24184315e-02 1.03486599e-02 4.34966609e-02 4.57093418e-02
      1.99952703e-02 4.33036797e-02 3.93458717e-02 8.98672640e-03
      3.88906710e-02 4.04678285e-02 1.43007701e-02 3.94376218e-02
      3.28702703e-02 1.97492298e-02 3.78656015e-02 3.40676308e-02
      2.57515199e-02 3.98333408e-02</_>
    <_>
      4.47782613e-02 2.30697505e-02 4.21339609e-02 2.81201806e-02
      2.59893909e-02 3.81651707e-02 4.05757017e-02 1.94529593e-02
      4.49660495e-02 4.38042283e-02 2.77640708e-02 4.60969694e-02
      4.32840213e-02 1.21263098e-02 4.39292789e-02 4.52742912e-02
      1.72055494e-02 4.41221893e-02 4.21009101e-02 9.56090540e-03
      4.16155607e-02 4.17325795e-02 1.44024100e-02 4.06373404e-02
      3.54413204e-02 1.94805004e-02 4.04094495e-02 3.60455103e-02
      2.77862791e-02 4.08869088e-02</_>
    <_>
      5.60400188e-02 1.39123900e-02 5.43216392e-02 4.01501283e-02
      1.46039398e-02 4.24867496e-02 7.43410066e-02 5.17010316e-02
      6.43241033e-02 6.15500994e-02 5.28098717e-02 4.80700694e-02
      7.51273334e-02 3.33351605e-02 6.97018430e-02 6.05489090e-02
      3.79057787e-02 4.91306297e-02 6.20702207e-02 1.31312301e-02
      6.08713701e-02 5.07508516e-02 2.60728002e-02 4.54083309e-02
      4.90180403e-02 2.00506207e-02 5.10283113e-02 4.08056788e-02
      3.13918218e-02 4.45046984e-02</_>
    <_>
      4.95039597e-02 3.78505886e-02 5.30144498e-02 3.05544306e-02
      3.41616198e-02 4.58171517e-02 4.50804904e-02 2.03333292e-02
      4.94492911e-02 4.57169414e-02 2.89373808e-02 4.73766811e-02
      4.92914207e-02 1.19593004e-02 5.03013618e-02 4.79354002e-02
      1.89381801e-02 4.63010184e-02 4.70095910e-02 8.65440723e-03
      4.64259312e-02 4.34307605e-02 1.37255602e-02 4.24433500e-02
      3.83579507e-02 1.66762900e-02 4.14004587e-02 3.61885391e-02
      2.48565804e-02 4.13689204e-02</_>
    <_>
      6.66442001e-03 8.55868533e-02 8.58366936e-02 1.86708998e-02
      7.07962736e-02 6.86141700e-02 7.55433291e-02 7.84231722e-02
      2.88236793e-02 6.67888299e-02 7.13551417e-02 2.51205191e-02
      9.13295299e-02 9.20045227e-02 1.16763096e-02 7.42944032e-02
      7.40394965e-02 1.36522101e-02 7.70836174e-02 7.84781277e-02
      3.24564204e-02 6.35066181e-02 6.83512911e-02 2.62663700e-02
      5.49274199e-02 6.56371117e-02 4.84682396e-02 4.44776788e-02
      6.25011921e-02 4.60353494e-02</_>
    <_>
      4.51273918e-02 2.38771196e-02 4.38008495e-02 2.87682991e-02
      2.78060306e-02 3.99771482e-02 4.53122705e-02 2.47579496e-02
      4.86742295e-02 4.89725806e-02 3.71782891e-02 4.56214398e-02
      4.88867983e-02 1.23127503e-02 4.97299917e-02 5.03575690e-02
      2.72390302e-02 4.44761403e-02 4.97862287e-02 1.07618095e-02
      4.91757505e-02 4.81724404e-02 2.85111703e-02 4.15243395e-02
      4.17430401e-02 2.24387906e-02 4.52214107e-02 3.95846404e-02
      3.48812304e-02 4.25890312e-02</_>
    <_>
      4.36326601e-02 2.05766205e-02 4.13758382e-02 2.79241204e-02
      2.58159395e-02 3.79510894e-02 4.08885218e-02 1.90407392e-02
      4.50130515e-02 4.36508916e-02 2.70780809e-02 4.62076105e-02
      4.38522212e-02 1.26859397e-02 4.45492715e-02 4.54180799e-02
      1.69680100e-02 4.43967618e-02 4.13602218e-02 1.03855701e-02
      4.05885093e-02 4.12222408e-02 1.33478502e-02 4.04337794e-02
      3.48762013e-02 1.89750399e-02 3.94979417e-02 3.55025716e-02
      2.67163105e-02 4.07819115e-02</_>
    <_>
      4.32461090e-02 2.24617906e-02 4.12475802e-02 2.73031108e-02
      2.72461604e-02 3.84559482e-02 3.99520583e-02 1.97721999e-02
      4.44777496e-02 4.33063395e-02 2.71536298e-02 4.58838008e-02
      4.15149108e-02 1.36164101e-02 4.20609713e-02 4.40892689e-02
      1.58789307e-02 4.34412807e-02 3.77517715e-02 1.22987404e-02
      3.59907001e-02 3.90635394e-02 1.08307796e-02 3.88684385e-02
      3.12745906e-02 1.85455400e-02 3.47715802e-02 3.31711583e-02
      2.36674491e-02 3.92914303e-02</_>
    <_>
      4.57887389e-02 5.10177910e-02 6.31475598e-02 2.85866596e-02
      4.71141003e-02 5.48685193e-02 4.13780585e-02 2.04234608e-02
      4.59492318e-02 4.55807410e-02 3.07049509e-02 4.64779809e-02
      4.24808487e-02 9.02730413e-03 4.32006791e-02 4.62001599e-02
      1.99398901e-02 4.39443290e-02 3.91956195e-02 9.69350338e-03
      3.89519483e-02 4.10322882e-02 1.48493899e-02 3.98360603e-02
      3.28346789e-02 2.08906792e-02 3.83738317e-02 3.44330594e-02
      2.58467309e-02 4.00874913e-02</_>
    <_>
      2.51059998e-02 5.33718094e-02 4.87659797e-02 3.95007292e-03
      4.83511090e-02 4.84357588e-02 7.67880231e-02 7.34246671e-02
      3.20039392e-02 6.61185011e-02 6.76677227e-02 2.02890709e-02
      4.66437191e-02 1.16847297e-02 4.78883684e-02 4.65350598e-02
      2.00093109e-02 4.42002714e-02 4.10010293e-02 7.07718823e-03
      4.13515791e-02 4.43036295e-02 2.39138193e-02 3.94588709e-02
      3.17946710e-02 2.21686307e-02 3.87236699e-02 3.48582901e-02
      2.94114202e-02 3.92455496e-02</_>
    <_>
      4.80703712e-02 2.05424502e-02 4.53302413e-02 3.14925797e-02
      2.29835995e-02 3.89598496e-02 4.07533608e-02 2.10262593e-02
      4.58242111e-02 4.39335108e-02 2.78054196e-02 4.62028086e-02
      4.69994210e-02 9.33347922e-03 4.79052514e-02 4.83529605e-02
      2.23096702e-02 4.52727303e-02 4.70360108e-02 4.72091697e-03
      4.72531617e-02 4.53233793e-02 2.01262999e-02 4.21845913e-02
      4.88798805e-02 3.00281402e-02 5.03804795e-02 4.36464399e-02
      4.13895398e-02 4.57002483e-02</_>
    <_>
      3.78804393e-02 2.19755899e-02 3.78298908e-02 2.35585999e-02
      3.08220796e-02 3.87135297e-02 3.99467014e-02 2.09690705e-02
      4.48072590e-02 4.27341089e-02 2.62971893e-02 4.58012111e-02
      4.17894907e-02 1.50682302e-02 4.18795384e-02 4.33971584e-02
      1.44253904e-02 4.32878099e-02 3.77771705e-02 1.46878799e-02
      3.50455791e-02 3.82024795e-02 8.74572154e-03 3.83709408e-02
      3.00753992e-02 1.71232000e-02 3.24705392e-02 3.23979892e-02
      2.23853905e-02 3.84190083e-02</_>
    <_>
      4.69301715e-02 2.78793108e-02 4.38209102e-02 2.86123101e-02
      2.62257196e-02 3.86001915e-02 4.16306704e-02 2.06157696e-02
      4.64296788e-02 4.40218188e-02 2.81064492e-02 4.61413488e-02
      4.58985008e-02 9.85419378e-03 4.65443507e-02 4.68748510e-02
      1.92192309e-02 4.50182892e-02 4.10116687e-02 1.12764500e-02
      4.02244218e-02 4.08275202e-02 1.31261302e-02 4.01320793e-02
      3.51673588e-02 2.08926797e-02 3.98584791e-02 3.44446898e-02
      2.47369800e-02 4.02211100e-02</_>
    <_>
      4.69848588e-02 2.02070195e-02 4.26411107e-02 3.04051302e-02
      1.72603894e-02 3.47700194e-02 4.06689793e-02 2.29427796e-02
      4.66940403e-02 4.42108400e-02 2.86673605e-02 4.58788909e-02
      4.20049094e-02 1.23996697e-02 4.29196209e-02 4.50271294e-02
      1.76092796e-02 4.37010787e-02 4.40130606e-02 4.85493615e-03
      4.41038087e-02 4.40970995e-02 1.87344905e-02 4.16452885e-02
      4.28702384e-02 2.13367101e-02 4.61662710e-02 4.07542698e-02
      3.38863693e-02 4.40299511e-02</_>
    <_>
      3.42733599e-02 7.62966424e-02 8.36002231e-02 2.82125808e-02
      6.93702474e-02 7.04774931e-02 8.34089592e-02 8.98075178e-02
      3.44859213e-02 7.16768876e-02 7.81814232e-02 3.23418714e-02
      9.33035016e-02 9.30234119e-02 7.69496104e-03 7.92492405e-02
      7.89849535e-02 6.49019284e-03 8.42379928e-02 8.89280066e-02
      3.07194404e-02 6.89120293e-02 7.45594129e-02 2.92639304e-02
      5.78892790e-02 8.11809674e-02 5.82587682e-02 4.54864800e-02
      7.14033172e-02 5.50726503e-02</_>
    <_>
      3.05710193e-02 7.50041008e-02 8.09856132e-02 2.64533907e-02
      7.08024576e-02 7.07281828e-02 8.24552625e-02 8.96204710e-02
      3.64436097e-02 7.11848736e-02 7.83827826e-02 3.38210501e-02
      9.24787074e-02 9.21667963e-02 8.95094965e-03 7.90741816e-02
      7.88512826e-02 6.29352080e-03 8.27209800e-02 8.69355425e-02
      3.01647000e-02 6.87047094e-02 7.42222890e-02 2.86568701e-02
      5.74674495e-02 7.92069286e-02 5.61244115e-02 4.58261892e-02
      7.07511678e-02 5.39399199e-02</_>
    <_>
      2.86563393e-02 8.81825313e-02 9.24496204e-02 2.90731695e-02
      7.48602897e-02 7.38593265e-02 8.78638625e-02 9.28353220e-02
      3.54681611e-02 7.23756924e-02 7.85771534e-02 3.07248197e-02
      9.69042033e-02 9.58165973e-02 1.49712097e-02 7.92506635e-02
      7.92819634e-02 2.99448194e-03 8.53239074e-02 8.66035223e-02
      3.49645503e-02 6.83930665e-02 7.30334669e-02 2.75832601e-02
      5.97576983e-02 7.74067491e-02 5.97794093e-02 4.59404513e-02
      6.93988577e-02 5.43200001e-02</_>
    <_>
      5.61828688e-02 2.84607895e-02 5.68684004e-02 3.81623395e-02
      2.60954201e-02 4.61872891e-02 6.64249510e-02 4.34887707e-02
      6.15455210e-02 5.90214208e-02 5.08027785e-02 4.80402596e-02
      7.95332119e-02 5.24766296e-02 6.20115399e-02 6.71058372e-02
      5.43493703e-02 4.12147902e-02 7.61149526e-02 5.44434190e-02
      5.51621690e-02 6.14947602e-02 5.32204397e-02 3.67920995e-02
      5.99341802e-02 5.36701009e-02 5.14484793e-02 4.72981110e-02
      5.32971397e-02 4.38190885e-02</_>
    <_>
      5.35981283e-02 2.10186206e-02 5.14568016e-02 3.62447985e-02
      2.18054205e-02 4.22905684e-02 4.40355316e-02 2.50886697e-02
      4.80514392e-02 4.93116491e-02 3.53978090e-02 4.58339304e-02
      4.57527116e-02 1.19881900e-02 4.67895605e-02 4.68598008e-02
      1.86577495e-02 4.52364311e-02 4.29362208e-02 8.89704376e-03
      4.22547311e-02 4.22111191e-02 1.37299802e-02 4.12717089e-02
      3.59256193e-02 1.80508792e-02 3.93540785e-02 3.51919308e-02
      2.43418906e-02 4.07045893e-02</_>
    <_>
      4.17030789e-02 6.96426779e-02 7.92936236e-02 3.05312295e-02
      5.44172712e-02 6.15039393e-02 9.26444829e-02 9.51593667e-02
      2.17559002e-02 7.40450919e-02 7.71990865e-02 2.25843601e-02
      1.01478100e-01 1.01693302e-01 7.42944004e-03 8.04252476e-02
      8.05269033e-02 5.46010910e-03 9.10395905e-02 9.60469618e-02
      3.07386592e-02 7.04225227e-02 7.55782425e-02 2.76892595e-02
      6.20030612e-02 8.68080035e-02 6.15600683e-02 4.66767512e-02
      7.17984810e-02 5.46721183e-02</_>
    <_>
      4.24476787e-02 3.51646207e-02 4.60571386e-02 2.46383101e-02
      3.62572409e-02 4.38129194e-02 4.35935184e-02 2.11456195e-02
      4.78891507e-02 4.62650396e-02 3.20205018e-02 4.63505611e-02
      4.63354401e-02 1.04763601e-02 4.75049913e-02 4.77990992e-02
      2.23248601e-02 4.44702208e-02 4.38506007e-02 5.29116485e-03
      4.39235084e-02 4.31763418e-02 1.79250706e-02 4.09577489e-02
      3.67550813e-02 1.81888007e-02 4.10065502e-02 3.63375098e-02
      2.83190794e-02 4.12369594e-02</_>
    <_>
      3.23445201e-02 3.60021703e-02 3.64987515e-02 1.35908201e-02
      3.86108011e-02 4.07758690e-02 4.01081406e-02 2.02059001e-02
      4.49024104e-02 4.39127088e-02 2.81887501e-02 4.60101515e-02
      4.27154489e-02 1.16155902e-02 4.33304198e-02 4.51981984e-02
      1.73918698e-02 4.39484194e-02 3.83258201e-02 9.53919720e-03
      3.74755897e-02 4.02731486e-02 1.35610700e-02 3.94554213e-02
      3.30678187e-02 1.83202904e-02 3.77510116e-02 3.55282314e-02
      2.78804302e-02 4.10661288e-02</_>
    <_>
      4.66075689e-02 3.55580784e-02 4.87838797e-02 2.79397909e-02
      3.41718011e-02 4.40832190e-02 9.26064774e-02 9.49272588e-02
      2.51019094e-02 7.37673268e-02 7.71346167e-02 2.37283297e-02
      4.23974991e-02 1.13801798e-02 4.24814299e-02 4.45751101e-02
      1.60468109e-02 4.37342413e-02 3.88925597e-02 1.32964002e-02
      3.70805487e-02 3.93418707e-02 1.05019901e-02 3.92655917e-02
      3.21736410e-02 1.98470093e-02 3.58896591e-02 3.32215093e-02
      2.34731808e-02 3.93995307e-02</_>
    <_>
      1.64161902e-02 8.35907832e-02 8.45863074e-02 1.64032206e-02
      6.63439035e-02 6.62495866e-02 9.20705125e-02 9.57333669e-02
      3.05282194e-02 7.34926835e-02 7.81607330e-02 2.75718104e-02
      9.84429494e-02 9.59282666e-02 2.41738893e-02 7.96379074e-02
      7.88961202e-02 1.31321503e-02 8.30920413e-02 7.17498735e-02
      4.92349491e-02 6.67359009e-02 6.30358309e-02 3.53048593e-02
      6.34903014e-02 5.62769398e-02 5.64507917e-02 4.88867499e-02
      5.25789186e-02 4.76520807e-02</_>
    <_>
      2.50971802e-02 5.31839915e-02 4.85065915e-02 3.79028590e-03
      4.82589714e-02 4.83362786e-02 7.68971890e-02 7.34512582e-02
      3.18908393e-02 6.61475807e-02 6.76172599e-02 2.01106593e-02
      4.76721413e-02 1.17829898e-02 4.89316396e-02 4.67945784e-02
      2.00970396e-02 4.44472395e-02 4.04349118e-02 6.91324286e-03
      4.08640988e-02 4.39010188e-02 2.32759193e-02 3.93058695e-02
      3.21238786e-02 2.20740996e-02 3.89330499e-02 3.49205397e-02
      2.95440704e-02 3.92386988e-02</_>
    <_>
      5.67045100e-02 5.14389090e-02 7.46297836e-02 4.07815501e-02
      4.35770601e-02 5.86980097e-02 7.83668905e-02 7.11645186e-02
      5.25824204e-02 6.67539164e-02 6.77956566e-02 3.86747196e-02
      8.41179192e-02 6.80046603e-02 5.28254993e-02 7.11527094e-02
      6.48763403e-02 3.23170386e-02 7.34215528e-02 5.25925718e-02
      5.27779385e-02 6.12496883e-02 5.37992083e-02 3.47277783e-02
      5.36451899e-02 3.88145112e-02 5.11839800e-02 4.48496602e-02
      4.56965715e-02 4.36871089e-02</_>
    <_>
      6.02169707e-02 4.10416499e-02 7.02518970e-02 4.28488515e-02
      3.62197496e-02 5.53903803e-02 8.08532611e-02 7.30818063e-02
      5.33239804e-02 6.71475232e-02 6.73500672e-02 3.92498411e-02
      8.70986804e-02 7.09538534e-02 5.31068407e-02 7.18910098e-02
      6.50790930e-02 3.28325108e-02 7.78130293e-02 5.92161417e-02
      5.26097491e-02 6.26609996e-02 5.59170097e-02 3.46565098e-02
      5.69550805e-02 4.30005901e-02 5.33158891e-02 4.58212085e-02
      4.71748784e-02 4.49583083e-02</_>
    <_>
      5.91285191e-02 4.39001694e-02 7.16682225e-02 4.21502404e-02
      4.10447791e-02 5.78246489e-02 8.65915269e-02 8.78135636e-02
      3.35170105e-02 7.12363571e-02 7.51263425e-02 2.68080104e-02
      9.48397219e-02 9.15109888e-02 2.53911503e-02 7.74483904e-02
      7.67874196e-02 1.05351200e-02 8.36513489e-02 7.95514435e-02
      3.76310609e-02 6.68960810e-02 6.82494789e-02 2.61143297e-02
      5.77415489e-02 5.36677092e-02 5.03753312e-02 4.69324812e-02
      5.51035404e-02 4.39813100e-02</_>
    <_>
      3.25523317e-02 4.83733192e-02 4.63805497e-02 1.24930097e-02
      4.41545993e-02 4.58589382e-02 9.10505131e-02 9.55303609e-02
      3.01919691e-02 7.26882294e-02 7.74762481e-02 2.87680794e-02
      4.39912900e-02 1.18134702e-02 4.51182500e-02 4.56975810e-02
      1.85926501e-02 4.39677797e-02 4.04075682e-02 1.05777401e-02
      3.92171405e-02 4.00722288e-02 1.17906397e-02 3.96242402e-02
      3.34950313e-02 1.73474792e-02 3.69170606e-02 3.40382010e-02
      2.43651401e-02 3.98464315e-02</_>
    <_>
      3.30050513e-02 4.80075888e-02 4.62971702e-02 1.30202305e-02
      4.38456610e-02 4.57039885e-02 9.09903720e-02 9.55820531e-02
      3.02332994e-02 7.26766214e-02 7.75611103e-02 2.87950393e-02
      4.40302789e-02 1.18310796e-02 4.51548696e-02 4.56988886e-02
      1.85707901e-02 4.39797305e-02 4.04282808e-02 1.05913104e-02
      3.92338000e-02 4.00727615e-02 1.17779803e-02 3.96272503e-02
      3.35118696e-02 1.74254291e-02 3.69510017e-02 3.40252481e-02
      2.43463404e-02 3.98373306e-02</_>
    <_>
      4.86763418e-02 1.99971702e-02 4.61403616e-02 3.22576202e-02
      2.28585098e-02 3.95223089e-02 4.08195592e-02 1.99611299e-02
      4.54080105e-02 4.39235307e-02 2.78099496e-02 4.61914316e-02
      4.73589115e-02 9.40280501e-03 4.82827984e-02 4.86153997e-02
      2.28629895e-02 4.52970788e-02 4.82900701e-02 4.80783219e-03
      4.85098995e-02 4.61058207e-02 2.16421504e-02 4.23047915e-02
      5.29329814e-02 3.81032899e-02 5.23835383e-02 4.57880795e-02
      4.66558486e-02 4.65209596e-02</_>
    <_>
      6.06737696e-02 2.39503104e-02 6.28829896e-02 4.37250100e-02
      2.87146606e-02 5.16547188e-02 7.59066492e-02 6.32159710e-02
      5.69093116e-02 6.49569631e-02 6.27724528e-02 4.19157892e-02
      8.01123306e-02 5.73434085e-02 5.84223196e-02 6.85049668e-02
      5.85055016e-02 3.77723612e-02 6.68024793e-02 3.51770297e-02
      5.77257387e-02 5.70085198e-02 4.33246493e-02 4.08371389e-02
      5.10285087e-02 3.24100181e-02 5.12788706e-02 4.35295403e-02
      4.18626405e-02 4.47272398e-02</_>
    <_>
      3.57110091e-02 3.81407887e-02 4.06881385e-02 1.68252606e-02
      3.92080396e-02 4.25514318e-02 4.38932106e-02 1.97761692e-02
      4.81263585e-02 4.49393801e-02 2.80021708e-02 4.70735691e-02
      4.84053791e-02 1.28714303e-02 4.94831018e-02 4.74034213e-02
      1.82631798e-02 4.60186712e-02 4.60840501e-02 7.82971270e-03
      4.55326997e-02 4.33615409e-02 1.41371703e-02 4.22811285e-02
      3.79515216e-02 1.61588192e-02 4.10330296e-02 3.64190005e-02
      2.56684795e-02 4.15840596e-02</_>
    <_>
      3.87416296e-02 2.12115496e-02 3.85564417e-02 2.48572808e-02
      2.95877792e-02 3.85658592e-02 3.95233594e-02 2.02631392e-02
      4.38477695e-02 4.14274596e-02 2.51221005e-02 4.49015088e-02
      4.28930894e-02 1.49596697e-02 4.30848487e-02 4.32328507e-02
      1.43401399e-02 4.31322716e-02 4.12277989e-02 1.22832898e-02
      3.95082608e-02 3.96763086e-02 1.02570700e-02 3.95250507e-02
      3.29199396e-02 1.50258103e-02 3.51045690e-02 3.35152708e-02
      2.30045002e-02 3.92166488e-02</_>
    <_>
      5.75131811e-02 4.34331298e-02 6.97458833e-02 4.05037217e-02
      4.15879786e-02 5.71818911e-02 7.67507628e-02 7.19863325e-02
      4.18033190e-02 6.77123889e-02 6.93709701e-02 2.90742107e-02
      8.22611004e-02 7.07953274e-02 4.29913104e-02 7.23785236e-02
      6.89214095e-02 2.28513591e-02 7.36656934e-02 5.88033199e-02
      4.76847291e-02 6.27622530e-02 5.91213107e-02 3.12184002e-02
      5.62177002e-02 4.87933904e-02 5.10891788e-02 4.66688983e-02
      5.25290594e-02 4.45373617e-02</_>
    <_>
      4.84366603e-02 2.46137604e-02 4.52672094e-02 3.06270793e-02
      2.40672007e-02 3.88626605e-02 7.96189085e-02 5.79508506e-02
      6.11314885e-02 6.50073364e-02 5.44443987e-02 4.56168316e-02
      4.70242314e-02 9.34764743e-03 4.79187407e-02 4.82497588e-02
      2.20057294e-02 4.53036614e-02 4.66108806e-02 4.83430503e-03
      4.68608402e-02 4.54705805e-02 2.11206898e-02 4.19247597e-02
      4.03661914e-02 2.13425495e-02 4.42205593e-02 3.95627990e-02
      3.46788503e-02 4.37027290e-02</_>
    <_>
      4.56647798e-02 3.33253890e-02 4.51202914e-02 2.72194203e-02
      3.02191097e-02 4.04484309e-02 4.08563614e-02 2.04885807e-02
      4.56421003e-02 4.43364605e-02 2.94260401e-02 4.57191691e-02
      4.10406701e-02 1.10329296e-02 4.20482494e-02 4.46468703e-02
      1.85569599e-02 4.28141691e-02 3.74899991e-02 9.61081125e-03
      3.66572887e-02 3.94167714e-02 1.31761199e-02 3.87098901e-02
      3.15226689e-02 1.90434996e-02 3.59317102e-02 3.32943685e-02
      2.48043109e-02 3.94002907e-02</_>
    <_>
      4.32864018e-02 1.36691798e-02 4.15832996e-02 3.02401800e-02
      1.30202901e-02 3.28895785e-02 4.04561087e-02 1.99960601e-02
      4.51246016e-02 4.34504114e-02 2.79942900e-02 4.55705188e-02
      4.25536707e-02 1.11139696e-02 4.35749292e-02 4.51721698e-02
      1.88345909e-02 4.32667509e-02 4.08873111e-02 6.50498597e-03
      4.07312810e-02 4.16526906e-02 1.63920894e-02 4.00029197e-02
      3.53026204e-02 1.72777399e-02 3.92554589e-02 3.55784409e-02
      2.72276103e-02 4.09972183e-02</_>
    <_>
      4.25049514e-02 3.61077487e-02 4.67809588e-02 2.46310607e-02
      3.69164795e-02 4.43637185e-02 4.35812697e-02 2.08985601e-02
      4.78288010e-02 4.61739302e-02 3.18191610e-02 4.64282297e-02
      4.68310490e-02 1.05686700e-02 4.79536206e-02 4.84669097e-02
      2.37533599e-02 4.44581211e-02 4.45020385e-02 4.67617903e-03
      4.46792804e-02 4.37949114e-02 1.92670599e-02 4.10830490e-02
      3.74162197e-02 1.85135007e-02 4.16857414e-02 3.67889106e-02
      2.91277803e-02 4.14264500e-02</_>
    <_>
      4.51062284e-02 2.08561495e-02 4.20745499e-02 2.92169992e-02
      2.29001194e-02 3.69892195e-02 7.20111430e-02 4.11307886e-02
      6.80501014e-02 5.81030399e-02 4.24153507e-02 5.23622818e-02
      4.24696803e-02 1.03506902e-02 4.35617603e-02 4.57325689e-02
      2.01524794e-02 4.32493389e-02 3.96170802e-02 7.41445413e-03
      3.95701416e-02 4.11687382e-02 1.63895003e-02 3.94889489e-02
      3.32485400e-02 1.93570592e-02 3.83387208e-02 3.46631892e-02
      2.71173995e-02 4.01528291e-02</_>
    <_>
      3.85760106e-02 3.30780596e-02 4.08899412e-02 2.10523102e-02
      3.55778188e-02 4.12412584e-02 4.06433418e-02 1.95121206e-02
      4.49789688e-02 4.28006612e-02 2.68159397e-02 4.54515591e-02
      4.35671918e-02 1.20737702e-02 4.44229208e-02 4.49748002e-02
      1.74463391e-02 4.36926000e-02 4.12449688e-02 8.89573246e-03
      4.05181684e-02 4.08652388e-02 1.34946303e-02 4.00144905e-02
      3.45222913e-02 1.78513899e-02 3.84838507e-02 3.46886888e-02
      2.56498791e-02 4.03088704e-02</_>
    <_>
      5.29985204e-02 4.12603691e-02 6.12516291e-02 3.51508483e-02
      3.66059206e-02 5.06606810e-02 5.02823517e-02 2.27222499e-02
      5.38459085e-02 4.90491800e-02 3.36521789e-02 4.80729006e-02
      4.83078398e-02 1.16040101e-02 4.96123098e-02 4.78014499e-02
      2.06645895e-02 4.52887900e-02 4.34688218e-02 9.49789211e-03
      4.27165814e-02 4.13728096e-02 1.31229199e-02 4.05980684e-02
      3.65790091e-02 1.86560005e-02 4.03069705e-02 3.47012095e-02
      2.44916193e-02 4.02866490e-02</_>
    <_>
      5.17902896e-02 4.16732691e-02 6.03817888e-02 3.39535289e-02
      3.76330018e-02 5.06069884e-02 4.92312089e-02 2.25604996e-02
      5.29633202e-02 4.86305617e-02 3.33945304e-02 4.77264300e-02
      4.68790308e-02 1.17052002e-02 4.80696708e-02 4.68742102e-02
      1.94279999e-02 4.48751003e-02 4.26896997e-02 1.05854599e-02
      4.17292602e-02 4.08398882e-02 1.23518398e-02 4.02783900e-02
      3.59776989e-02 1.92731805e-02 3.99199612e-02 3.44047099e-02
      2.44075898e-02 4.01086994e-02</_>
    <_>
      2.78244093e-02 8.26897696e-02 8.69858265e-02 2.41812207e-02
      6.65722713e-02 6.80943429e-02 7.92225972e-02 8.42975527e-02
      2.98858993e-02 7.00977966e-02 7.51364678e-02 2.97239292e-02
      8.70030969e-02 8.69216770e-02 6.95047015e-03 7.64628574e-02
      7.58759305e-02 1.16403801e-02 7.60229975e-02 7.95342773e-02
      3.04815695e-02 6.58483729e-02 7.16570690e-02 2.86705196e-02
      5.38675711e-02 6.98193982e-02 5.64248711e-02 4.38852198e-02
      6.81131929e-02 5.38895503e-02</_>
    <_>
      1.52426297e-02 8.04793909e-02 8.15355778e-02 1.63609609e-02
      6.38792366e-02 6.39010966e-02 8.37052464e-02 8.72413069e-02
      2.47748792e-02 6.88862875e-02 7.24585876e-02 2.61729509e-02
      8.99045169e-02 9.03586075e-02 9.77768656e-03 7.40972236e-02
      7.40549788e-02 1.09501705e-02 7.87231475e-02 8.12632069e-02
      3.32009792e-02 6.39091209e-02 6.92697763e-02 2.74528600e-02
      5.71083501e-02 6.70198873e-02 5.25853187e-02 4.46750894e-02
      6.22813292e-02 4.80302311e-02</_>
    <_>
      5.66943586e-02 2.94480696e-02 5.80000915e-02 3.86215709e-02
      2.67783795e-02 4.69315313e-02 6.97399080e-02 4.77689393e-02
      6.29344508e-02 6.02965988e-02 5.27656898e-02 4.82794493e-02
      8.21646899e-02 5.62118106e-02 6.20640218e-02 6.81083873e-02
      5.56509309e-02 4.10177112e-02 7.78417364e-02 5.69208190e-02
      5.54136597e-02 6.20690212e-02 5.38688712e-02 3.72142904e-02
      6.12305216e-02 5.49621917e-02 5.29372096e-02 4.75403294e-02
      5.32211401e-02 4.48576510e-02</_>
    <_>
      4.80517708e-02 1.14259301e-02 4.67182398e-02 3.49267013e-02
      1.62686706e-02 3.85093912e-02 4.04931419e-02 2.33697705e-02
      4.60586399e-02 4.22727689e-02 2.55311392e-02 4.60707806e-02
      4.23940010e-02 1.49758402e-02 4.25584503e-02 4.37987298e-02
      1.45404404e-02 4.36743982e-02 4.11675684e-02 1.23543199e-02
      3.94846797e-02 4.04207185e-02 1.05882501e-02 4.02120203e-02
      3.60939801e-02 1.59326103e-02 3.86633910e-02 3.52669917e-02
      2.39334106e-02 4.07099016e-02</_>
    <_>
      4.41888198e-02 1.18231298e-02 4.26844992e-02 3.16089690e-02
      1.54615296e-02 3.51839997e-02 4.00453508e-02 1.91342495e-02
      4.43577506e-02 4.30455916e-02 2.74818297e-02 4.54044715e-02
      4.19972613e-02 1.14753302e-02 4.28642593e-02 4.45974395e-02
      1.78224202e-02 4.31020409e-02 4.02445793e-02 8.03674385e-03
      3.98324095e-02 4.09372784e-02 1.48309302e-02 3.97470891e-02
      3.38349007e-02 1.70765202e-02 3.76189910e-02 3.47036012e-02
      2.59343795e-02 4.04039584e-02</_>
    <_>
      4.27680202e-02 4.05896716e-02 4.52907905e-02 2.27137506e-02
      3.53050791e-02 4.17319909e-02 9.13947076e-02 9.49315429e-02
      3.56994905e-02 7.29310066e-02 7.78263733e-02 3.07802595e-02
      8.31753165e-02 4.32408191e-02 7.22150132e-02 6.52483404e-02
      4.13565785e-02 5.13733588e-02 4.06192988e-02 6.73274277e-03
      4.07719612e-02 4.24435809e-02 1.81223396e-02 4.01426293e-02
      3.36529016e-02 2.05662306e-02 3.94307002e-02 3.58816907e-02
      2.94645503e-02 4.05356400e-02</_>
    <_>
      4.64170389e-02 2.52958909e-02 4.44998890e-02 2.95298900e-02
      2.66516209e-02 3.96869890e-02 3.96155901e-02 1.81261003e-02
      4.35647592e-02 4.31432799e-02 2.79263202e-02 4.53336611e-02
      4.13840190e-02 1.16753401e-02 4.21212502e-02 4.41426709e-02
      1.71751808e-02 4.28873003e-02 3.80493291e-02 1.04282098e-02
      3.69179398e-02 3.92732210e-02 1.22063002e-02 3.87819000e-02
      3.16223092e-02 1.77856795e-02 3.51697691e-02 3.31636705e-02
      2.40522400e-02 3.92321795e-02</_>
    <_>
      3.22977602e-02 5.07221110e-02 4.78604212e-02 1.18830297e-02
      4.46290895e-02 4.61465605e-02 4.19139117e-02 2.14354005e-02
      4.67622094e-02 4.54056412e-02 3.08726002e-02 4.58661206e-02
      4.60130088e-02 1.06011601e-02 4.72184084e-02 4.77456115e-02
      2.22766809e-02 4.44133990e-02 4.34004590e-02 4.96222218e-03
      4.35023010e-02 4.31995317e-02 1.83858406e-02 4.08493094e-02
      3.69782187e-02 1.85122192e-02 4.13158499e-02 3.66033986e-02
      2.89754495e-02 4.13345285e-02</_>
    <_>
      4.76198308e-02 1.85912997e-02 4.39597294e-02 3.13335098e-02
      1.72150303e-02 3.56835611e-02 9.14292634e-02 9.19985771e-02
      2.74469294e-02 7.31721818e-02 7.56373182e-02 2.35057492e-02
      5.13991900e-02 1.18769398e-02 5.26799895e-02 4.89148088e-02
      2.42332295e-02 4.45816107e-02 4.37560081e-02 6.17115293e-03
      4.36396413e-02 4.32874896e-02 1.69541091e-02 4.14238796e-02
      3.64711992e-02 1.78220291e-02 4.05824296e-02 3.65524516e-02
      2.80016903e-02 4.15876806e-02</_>
    <_>
      3.15540805e-02 7.17510507e-02 7.83437565e-02 2.62480695e-02
      6.94593936e-02 6.97872266e-02 8.19123313e-02 8.97468030e-02
      3.76529805e-02 7.10589066e-02 7.87074789e-02 3.50410081e-02
      9.22257304e-02 9.20182765e-02 7.58801587e-03 7.92162791e-02
      7.89016634e-02 7.28639914e-03 8.20305496e-02 8.70848894e-02
      3.11208107e-02 6.85062632e-02 7.44280666e-02 3.03048696e-02
      5.60574792e-02 8.01362172e-02 5.79006784e-02 4.49998789e-02
      7.13778585e-02 5.57090789e-02</_>
    <_>
      4.68496904e-02 3.02985199e-02 4.67775390e-02 2.90692300e-02
      3.02868299e-02 4.19242382e-02 4.03254591e-02 1.95537601e-02
      4.47704606e-02 4.40220200e-02 2.92333905e-02 4.56156209e-02
      4.13117111e-02 1.06196404e-02 4.22652587e-02 4.48418818e-02
      1.87999699e-02 4.29152586e-02 3.73019688e-02 9.21291485e-03
      3.65558192e-02 3.94488797e-02 1.35756899e-02 3.86437401e-02
      3.16144489e-02 1.86119508e-02 3.63539904e-02 3.39000709e-02
      2.63560601e-02 3.98522690e-02</_>
    <_>
      4.96416204e-02 2.28212103e-02 4.55910712e-02 3.20175998e-02
      1.99686196e-02 3.76212411e-02 4.06288989e-02 2.30172705e-02
      4.65197712e-02 4.32400517e-02 2.70080008e-02 4.60764393e-02
      4.34554406e-02 1.30930198e-02 4.42566685e-02 4.51988392e-02
      1.69879999e-02 4.41706404e-02 4.07492518e-02 1.00066401e-02
      4.01610993e-02 4.11530808e-02 1.40274698e-02 4.01907489e-02
      3.43179107e-02 2.09698491e-02 4.01414596e-02 3.52467410e-02
      2.76358407e-02 4.00946997e-02</_>
    <_>
      2.56053992e-02 6.29106015e-02 6.01088889e-02 7.87443481e-03
      5.27530089e-02 5.32738604e-02 8.42170566e-02 8.56111199e-02
      1.96281094e-02 7.26675913e-02 7.38669932e-02 2.33521704e-02
      8.77213329e-02 8.76947865e-02 1.83622502e-02 7.36903101e-02
      7.41244033e-02 9.26920585e-03 4.30303104e-02 5.83517598e-03
      4.28994410e-02 4.26607691e-02 1.64012592e-02 4.09836806e-02
      3.38364393e-02 1.54673504e-02 3.71243991e-02 3.51280086e-02
      2.66006608e-02 4.09270301e-02</_>
    <_>
      4.63562198e-02 2.50881407e-02 4.43838201e-02 2.95198895e-02
      2.65112594e-02 3.95836905e-02 3.96065786e-02 1.81358196e-02
      4.35605384e-02 4.31379713e-02 2.79209297e-02 4.53303196e-02
      4.13984917e-02 1.16885100e-02 4.21432517e-02 4.41532508e-02
      1.71889197e-02 4.28938083e-02 3.80879901e-02 1.03844302e-02
      3.69700491e-02 3.93026806e-02 1.22472197e-02 3.88013199e-02
      3.16747203e-02 1.78190097e-02 3.52370888e-02 3.31842415e-02
      2.40680501e-02 3.92493196e-02</_>
    <_>
      5.12022190e-02 9.74576175e-03 5.05082496e-02 3.81982289e-02
      2.12422293e-02 4.34401594e-02 4.32857908e-02 2.34045293e-02
      4.83696908e-02 4.29363400e-02 2.51792502e-02 4.68432717e-02
      4.75323200e-02 1.46601005e-02 4.81121391e-02 4.60533015e-02
      1.56784002e-02 4.56517003e-02 4.70445789e-02 8.13757069e-03
      4.64267395e-02 4.35523503e-02 1.36134997e-02 4.25873511e-02
      3.95561606e-02 1.43796001e-02 4.19771783e-02 3.70320603e-02
      2.54228897e-02 4.20920998e-02</_>
    <_>
      3.79458293e-02 6.64469972e-02 7.20268264e-02 2.46382505e-02
      5.20680808e-02 5.73575683e-02 9.16903466e-02 9.49786529e-02
      2.99928393e-02 7.34878033e-02 7.79549927e-02 2.68643294e-02
      1.01159900e-01 1.00403398e-01 1.27109000e-02 8.03022012e-02
      8.02014917e-02 4.72714705e-03 9.03783664e-02 9.31641906e-02
      3.03830206e-02 7.00580105e-02 7.41907731e-02 2.56494805e-02
      6.50492683e-02 8.27877522e-02 5.55677004e-02 4.89371903e-02
      6.87483326e-02 4.98919897e-02</_>
    <_>
      2.76732296e-02 5.41521795e-02 4.95567210e-02 6.21489715e-03
      4.75501418e-02 4.79537398e-02 8.04402903e-02 7.76817873e-02
      2.95350607e-02 6.76617995e-02 6.90520406e-02 1.92058496e-02
      4.14438508e-02 1.15122003e-02 4.25394811e-02 4.46441211e-02
      1.86108798e-02 4.27862108e-02 3.52580808e-02 7.65127409e-03
      3.50481309e-02 3.95268388e-02 1.54744303e-02 3.82266603e-02
      3.30805518e-02 2.11944804e-02 3.87870595e-02 3.39503400e-02
      2.57595107e-02 3.96430306e-02</_>
    <_>
      3.82707082e-02 7.06871971e-02 7.83737823e-02 2.69622691e-02
      5.78348786e-02 6.27202988e-02 9.08670872e-02 9.61773023e-02
      3.41415890e-02 7.31355026e-02 7.91738108e-02 3.04454099e-02
      1.00923903e-01 1.00736000e-01 9.20436531e-03 8.05383474e-02
      8.06167126e-02 3.56799597e-03 9.04335827e-02 9.27310884e-02
      2.55382508e-02 7.05508366e-02 7.40875974e-02 2.27643494e-02
      6.54548183e-02 7.98134431e-02 5.11586517e-02 4.95520309e-02
      6.74736872e-02 4.71237898e-02</_>
    <_>
      3.82191017e-02 7.15804473e-02 7.94761777e-02 2.73724198e-02
      5.87644801e-02 6.35442436e-02 9.08566937e-02 9.60002914e-02
      3.36275510e-02 7.31674582e-02 7.90665001e-02 3.00638191e-02
      1.00966200e-01 1.00793600e-01 7.75232399e-03 8.05738568e-02
      8.06097612e-02 2.79735494e-03 9.03969109e-02 9.28175226e-02
      2.55106706e-02 7.05442727e-02 7.41499290e-02 2.29146201e-02
      6.54319376e-02 7.80486166e-02 4.98949215e-02 4.96914387e-02
      6.65894672e-02 4.60975207e-02</_>
    <_>
      4.54881415e-02 3.63435596e-02 4.56350818e-02 2.63455193e-02
      3.10329907e-02 4.04696502e-02 9.02419686e-02 9.32262093e-02
      2.41082702e-02 7.23278970e-02 7.60855600e-02 2.37115305e-02
      4.23627310e-02 1.02595398e-02 4.34521809e-02 4.57733199e-02
      2.02210192e-02 4.32624184e-02 3.93252000e-02 8.80801957e-03
      3.89592908e-02 4.05574888e-02 1.46271298e-02 3.94321717e-02
      3.28153484e-02 1.98335908e-02 3.79270501e-02 3.41135301e-02
      2.59696692e-02 3.98415886e-02</_>
    <_>
      9.23667569e-03 8.41975063e-02 8.46849233e-02 1.74587499e-02
      6.88527972e-02 6.73177615e-02 8.06758478e-02 8.44158232e-02
      2.62948908e-02 6.81135431e-02 7.24393278e-02 2.56835092e-02
      9.17038769e-02 9.23567787e-02 1.22178998e-02 7.43596032e-02
      7.40209371e-02 1.41656697e-02 7.78166801e-02 7.88892284e-02
      3.45371105e-02 6.34607375e-02 6.82943910e-02 2.72724703e-02
      5.53352088e-02 6.23819791e-02 5.00474684e-02 4.45176698e-02
      6.05069995e-02 4.61988300e-02</_>
    <_>
      4.42985706e-02 1.85309406e-02 4.15698402e-02 2.93483306e-02
      2.21255403e-02 3.66448015e-02 3.83640006e-02 1.87610108e-02
      4.26186807e-02 4.21514511e-02 2.67507192e-02 4.48235311e-02
      4.00656089e-02 1.29847601e-02 4.07069586e-02 4.31452692e-02
      1.58999097e-02 4.23922986e-02 3.72897200e-02 1.14082601e-02
      3.58351097e-02 3.86522599e-02 1.12764603e-02 3.83780003e-02
      3.09210606e-02 1.71186198e-02 3.41709889e-02 3.29121314e-02
      2.37349309e-02 3.89865786e-02</_>
    <_>
      5.24041802e-02 4.17088382e-02 6.09946214e-02 3.45762894e-02
      3.72381210e-02 5.07292487e-02 4.94297706e-02 2.25239992e-02
      5.31283505e-02 4.86960597e-02 3.33838090e-02 4.78369407e-02
      4.70429882e-02 1.16937598e-02 4.82982807e-02 4.70973998e-02
      1.98543295e-02 4.49092686e-02 4.25044894e-02 1.03478003e-02
      4.15813215e-02 4.08356003e-02 1.25360200e-02 4.02283706e-02
      3.59838083e-02 1.91715695e-02 3.98742184e-02 3.44133005e-02
      2.43805703e-02 4.01150882e-02</_>
    <_>
      4.86745611e-02 1.69710405e-02 4.56365198e-02 3.30636390e-02
      1.60999503e-02 3.67493406e-02 4.13140617e-02 2.29287799e-02
      4.71763313e-02 4.38206084e-02 2.75381692e-02 4.62707914e-02
      4.20785807e-02 1.35734696e-02 4.26700190e-02 4.43962514e-02
      1.60098597e-02 4.37194481e-02 4.15063202e-02 9.93926544e-03
      4.05040905e-02 4.13184315e-02 1.26746399e-02 4.06510793e-02
      3.64367701e-02 1.59809291e-02 3.95411290e-02 3.61201502e-02
      2.56025195e-02 4.14305702e-02</_>
    <_>
      2.84506604e-02 9.13994834e-02 9.48429331e-02 3.09097692e-02
      7.77352527e-02 7.55249187e-02 8.66167098e-02 9.26758200e-02
      3.79984193e-02 7.18732774e-02 7.89963305e-02 3.28418799e-02
      9.61416215e-02 9.51359272e-02 1.39323398e-02 7.92902932e-02
      7.92902634e-02 8.60856017e-05 8.46728608e-02 8.53097886e-02
      3.21451798e-02 6.85908869e-02 7.26254284e-02 2.53061894e-02
      5.99014796e-02 7.65363872e-02 5.64132407e-02 4.66146693e-02
      6.89789429e-02 5.22560701e-02</_>
    <_>
      5.47630005e-02 2.60907691e-02 5.38723618e-02 3.68966013e-02
      2.39184201e-02 4.39643301e-02 5.83243296e-02 3.33617888e-02
      5.77638298e-02 5.50771691e-02 4.45314199e-02 4.75804694e-02
      6.79183826e-02 3.70289683e-02 5.92803694e-02 6.22919686e-02
      4.74256016e-02 4.23567295e-02 6.80383965e-02 4.14833799e-02
      5.51530793e-02 5.81730790e-02 4.79103290e-02 3.76707800e-02
      5.44562191e-02 4.70344201e-02 4.86523882e-02 4.57463302e-02
      5.16990796e-02 4.22083400e-02</_>
    <_>
      4.47643809e-02 1.25390496e-02 4.31320406e-02 3.19098085e-02
      1.46579202e-02 3.51083018e-02 3.99637409e-02 1.82513800e-02
      4.39127609e-02 4.29923907e-02 2.73902491e-02 4.53727394e-02
      4.19154018e-02 1.17064305e-02 4.27374393e-02 4.44387682e-02
      1.74670909e-02 4.30888683e-02 4.00942191e-02 8.37314408e-03
      3.95887718e-02 4.07529585e-02 1.44208996e-02 3.96797694e-02
      3.36721204e-02 1.71152093e-02 3.74399014e-02 3.45810503e-02
      2.57517807e-02 4.03100401e-02</_>
    <_>
      4.54787202e-02 1.90755595e-02 4.23206612e-02 2.95660608e-02
      2.18036808e-02 3.66480500e-02 4.22729589e-02 2.04470996e-02
      4.69577201e-02 4.47759591e-02 2.84942109e-02 4.66769785e-02
      4.58866097e-02 1.06935296e-02 4.67707105e-02 4.71022502e-02
      1.94165707e-02 4.51691896e-02 4.30877693e-02 6.87993411e-03
      4.28571589e-02 4.28900905e-02 1.61241591e-02 4.12878394e-02
      3.78563814e-02 2.85407901e-02 4.21355590e-02 3.98741104e-02
      4.17077690e-02 4.13498506e-02</_>
    <_>
      2.90516205e-02 8.66105631e-02 9.12763104e-02 2.81483103e-02
      7.29262605e-02 7.27052167e-02 8.87516364e-02 9.30501968e-02
      3.43858711e-02 7.26459697e-02 7.83341527e-02 2.96505708e-02
      9.74378437e-02 9.63204280e-02 1.65733900e-02 7.91359767e-02
      7.92139471e-02 5.33363502e-03 8.58400166e-02 8.75084698e-02
      3.73626016e-02 6.82031363e-02 7.32085109e-02 2.93462891e-02
      5.96791208e-02 7.77024627e-02 6.22506104e-02 4.54771109e-02
      6.94161281e-02 5.57629690e-02</_>
    <_>
      3.38962786e-02 3.54360193e-02 3.72593589e-02 1.52785797e-02
      3.78822610e-02 4.06836309e-02 4.22886908e-02 1.92852896e-02
      4.64230292e-02 4.52902392e-02 2.97576394e-02 4.67563719e-02
      4.55981791e-02 1.00786900e-02 4.64322083e-02 4.70673516e-02
      1.99238993e-02 4.49111611e-02 4.22056615e-02 6.36477489e-03
      4.21721488e-02 4.28654589e-02 1.73601303e-02 4.08676602e-02
      3.40770483e-02 1.89705696e-02 3.89578715e-02 3.56304906e-02
      2.80721597e-02 4.08935994e-02</_>
    <_>
      4.37601395e-02 1.37941102e-02 4.19194810e-02 3.05856001e-02
      1.33091696e-02 3.33201103e-02 4.11733687e-02 2.04281006e-02
      4.59155589e-02 4.43146788e-02 2.93081608e-02 4.57587801e-02
      4.33207788e-02 1.08928103e-02 4.43571508e-02 4.56017107e-02
      1.92576591e-02 4.35441583e-02 4.16973606e-02 6.14089798e-03
      4.15962115e-02 4.20571193e-02 1.67345405e-02 4.02887315e-02
      3.60145308e-02 1.72161199e-02 3.98867615e-02 3.58144902e-02
      2.73092501e-02 4.11286093e-02</_>
    <_>
      2.54034307e-02 7.14110211e-02 7.30629563e-02 1.59534607e-02
      6.05766587e-02 6.15705214e-02 7.76527673e-02 7.68458471e-02
      3.30752693e-02 6.97636679e-02 7.26928487e-02 2.43009906e-02
      5.32497205e-02 2.50164699e-02 4.91402708e-02 5.67298010e-02
      4.11149710e-02 4.07135710e-02 4.54192795e-02 1.07113104e-02
      4.49431315e-02 4.70427200e-02 2.90000997e-02 4.01976407e-02
      3.80701609e-02 2.22261399e-02 4.24562097e-02 3.88011001e-02
      3.54561694e-02 4.37662788e-02</_>
    <_>
      3.38962786e-02 3.54360193e-02 3.72593589e-02 1.52785797e-02
      3.78822610e-02 4.06836309e-02 4.22886908e-02 1.92852896e-02
      4.64230292e-02 4.52902392e-02 2.97576394e-02 4.67563719e-02
      4.55981791e-02 1.00786900e-02 4.64322083e-02 4.70673516e-02
      1.99238993e-02 4.49111611e-02 4.22056615e-02 6.36477489e-03
      4.21721488e-02 4.28654589e-02 1.73601303e-02 4.08676602e-02
      3.40770483e-02 1.89705696e-02 3.89578715e-02 3.56304906e-02
      2.80721597e-02 4.08935994e-02</_>
    <_>
      5.45605905e-02 9.92949400e-03 5.39017394e-02 4.09322083e-02
      1.41439596e-02 4.28843610e-02 4.29566801e-02 1.62613504e-02
      4.54157814e-02 4.30839509e-02 2.44134292e-02 4.61494587e-02
      4.68648598e-02 1.36572700e-02 4.63805199e-02 4.51075882e-02
      1.39667401e-02 4.49689515e-02 4.90770787e-02 3.37061100e-03
      4.91882190e-02 4.68242988e-02 2.04951409e-02 4.37802188e-02
      4.61747311e-02 1.78042892e-02 4.87600900e-02 4.04832102e-02
      2.97311302e-02 4.40562218e-02</_>
    <_>
      4.68400009e-02 3.51247415e-02 4.58099619e-02 2.77284496e-02
      2.88088191e-02 3.97194289e-02 9.12554637e-02 9.37944278e-02
      2.32344996e-02 7.27409422e-02 7.61471167e-02 2.27996409e-02
      4.19864208e-02 9.83208232e-03 4.30553108e-02 4.58548591e-02
      2.08605807e-02 4.30384316e-02 3.90151292e-02 8.20518192e-03
      3.89635190e-02 4.08109799e-02 1.58824697e-02 3.92867513e-02
      3.27569209e-02 2.04565395e-02 3.83518785e-02 3.42105404e-02
      2.65424699e-02 3.97721082e-02</_>
    <_>
      4.42035012e-02 2.21515093e-02 4.17562388e-02 2.79896595e-02
      2.60578208e-02 3.81266698e-02 4.00803387e-02 1.96156092e-02
      4.45486009e-02 4.34339195e-02 2.73376107e-02 4.59228791e-02
      4.23064493e-02 1.28525104e-02 4.28871699e-02 4.46325094e-02
      1.64852608e-02 4.37447503e-02 4.00237516e-02 1.10574402e-02
      3.89694683e-02 4.04241085e-02 1.26381498e-02 3.98400910e-02
      3.35477889e-02 1.93659496e-02 3.77719812e-02 3.42042409e-02
      2.48748809e-02 4.00720611e-02</_>
    <_>
      2.50380598e-02 5.32185100e-02 4.83936407e-02 3.37089808e-03
      4.83007208e-02 4.83594798e-02 7.71094933e-02 7.35699683e-02
      3.15029286e-02 6.62048832e-02 6.75423667e-02 1.96679905e-02
      4.94575799e-02 1.18737901e-02 5.07542416e-02 4.74563092e-02
      2.04127207e-02 4.50296700e-02 3.91605385e-02 6.74064783e-03
      3.97155210e-02 4.29701209e-02 2.18918305e-02 3.89726385e-02
      3.26773115e-02 2.18861103e-02 3.92807685e-02 3.49788591e-02
      2.96691209e-02 3.92315388e-02</_>
    <_>
      5.68938889e-02 5.08291088e-02 7.44145364e-02 4.07810509e-02
      4.40145284e-02 5.89608289e-02 7.74783194e-02 6.81505799e-02
      5.40220402e-02 6.60584569e-02 6.58618733e-02 3.95229198e-02
      8.31103399e-02 6.53131530e-02 5.44110499e-02 7.04208165e-02
      6.32605627e-02 3.36916894e-02 7.34280869e-02 5.22470288e-02
      5.31232692e-02 6.10593706e-02 5.34426793e-02 3.49436104e-02
      5.36606014e-02 3.92758995e-02 5.10347411e-02 4.49024588e-02
      4.60641794e-02 4.35917005e-02</_>
    <_>
      3.84785682e-02 2.19103806e-02 3.84509712e-02 2.44430192e-02
      3.01071592e-02 3.86981517e-02 3.99147496e-02 2.00643800e-02
      4.43359688e-02 4.20121104e-02 2.57528499e-02 4.51831818e-02
      4.29995693e-02 1.48116704e-02 4.32474986e-02 4.33440506e-02
      1.45112798e-02 4.31843288e-02 4.12110016e-02 1.22634303e-02
      3.94977294e-02 3.96758802e-02 1.02776699e-02 3.95211987e-02
      3.29533517e-02 1.50182396e-02 3.51203382e-02 3.35204192e-02
      2.29658093e-02 3.92132215e-02</_>
    <_>
      4.38639484e-02 1.37341199e-02 4.18041497e-02 3.05349603e-02
      1.51427304e-02 3.40197384e-02 4.18379717e-02 2.02015601e-02
      4.64567803e-02 4.47566397e-02 2.89382003e-02 4.64713499e-02
      4.35924716e-02 1.21933501e-02 4.46283184e-02 4.58837412e-02
      1.83269698e-02 4.43123393e-02 3.93276997e-02 1.03230895e-02
      3.82304899e-02 4.03585099e-02 1.26261897e-02 3.97462510e-02
      3.22449394e-02 1.74869001e-02 3.57027389e-02 3.39555405e-02
      2.44347900e-02 3.98725607e-02</_>
    <_>
      3.37119587e-02 5.48101813e-02 5.00556901e-02 1.22423703e-02
      4.37187105e-02 4.52035591e-02 9.27126035e-02 9.53288376e-02
      2.60827094e-02 7.39448667e-02 7.70066530e-02 2.62620505e-02
      5.03301993e-02 1.88361201e-02 4.89772782e-02 5.38776293e-02
      3.65046710e-02 4.14218195e-02 3.79913189e-02 9.18718521e-03
      3.73062789e-02 4.04547714e-02 1.39043704e-02 3.95489112e-02
      3.48357186e-02 2.17132699e-02 3.88383493e-02 3.38604115e-02
      2.32422296e-02 4.00190093e-02</_>
    <_>
      4.02411893e-02 6.78866282e-02 7.63201490e-02 2.76344195e-02
      5.56630716e-02 6.13057911e-02 9.03497487e-02 9.47786272e-02
      2.98247505e-02 7.34044984e-02 7.84585401e-02 2.78745107e-02
      9.97411832e-02 9.94492471e-02 7.66537199e-03 8.03600177e-02
      8.03396031e-02 2.02313601e-03 8.94608125e-02 9.36690792e-02
      2.92128902e-02 7.02210218e-02 7.51153901e-02 2.68623102e-02
      6.26866817e-02 8.41243863e-02 5.69936894e-02 4.75861803e-02
      7.07454532e-02 5.23539409e-02</_>
    <_>
      4.31546383e-02 1.29755596e-02 4.14567292e-02 3.02682500e-02
      1.41791003e-02 3.33973095e-02 4.08306494e-02 2.03238595e-02
      4.56091799e-02 4.37000990e-02 2.82492992e-02 4.56794500e-02
      4.29475382e-02 1.13816597e-02 4.40668985e-02 4.53938395e-02
      1.90042201e-02 4.34295014e-02 4.17354107e-02 5.74632408e-03
      4.16687392e-02 4.21875603e-02 1.70960296e-02 4.03176099e-02
      3.61121707e-02 1.72328092e-02 4.00100611e-02 3.60496603e-02
      2.78755892e-02 4.13397700e-02</_>
    <_>
      4.11503389e-02 3.79467197e-02 4.58595008e-02 2.26712301e-02
      3.82568315e-02 4.44156192e-02 4.37126309e-02 2.03513503e-02
      4.82079796e-02 4.49790508e-02 2.81635299e-02 4.70256284e-02
      4.74346913e-02 1.21047096e-02 4.84065898e-02 4.71697003e-02
      1.85673106e-02 4.56199683e-02 4.43704687e-02 8.87961593e-03
      4.36407588e-02 4.24873307e-02 1.35681499e-02 4.15739194e-02
      3.64963412e-02 1.67340692e-02 3.97126302e-02 3.56866308e-02
      2.52001099e-02 4.10683714e-02</_>
    <_>
      4.48258482e-02 4.08049002e-02 4.83672507e-02 2.51526404e-02
      3.54831517e-02 4.33529392e-02 9.09452066e-02 9.34566632e-02
      3.76525111e-02 7.25739002e-02 7.69201368e-02 3.16558406e-02
      1.00802504e-01 1.01085298e-01 1.13204401e-02 7.99060836e-02
      8.01882967e-02 6.72683679e-03 3.90718393e-02 7.11666001e-03
      3.91361192e-02 4.17647697e-02 1.74372494e-02 3.97509187e-02
      3.25669199e-02 2.01337803e-02 3.82784791e-02 3.54339406e-02
      2.86804195e-02 4.06032614e-02</_>
    <_>
      4.32296805e-02 2.21071206e-02 4.11456786e-02 2.72260606e-02
      2.70355903e-02 3.82709801e-02 4.22859900e-02 1.88440792e-02
      4.62368913e-02 4.52825204e-02 2.97312904e-02 4.68187109e-02
      4.61496785e-02 9.65495873e-03 4.70405892e-02 4.76721898e-02
      2.09711306e-02 4.51169014e-02 4.29260097e-02 6.94302982e-03
      4.30638418e-02 4.31871004e-02 1.76559109e-02 4.09772694e-02
      3.76481004e-02 2.02776697e-02 4.22736593e-02 3.79396789e-02
      3.19156796e-02 4.17784490e-02</_>
    <_>
      4.83580604e-02 4.48808894e-02 5.84158190e-02 2.99744792e-02
      4.04921882e-02 5.03616892e-02 4.56854999e-02 2.02073399e-02
      4.96358909e-02 4.71274890e-02 3.14129107e-02 4.78164405e-02
      4.59738299e-02 9.57160071e-03 4.67099510e-02 4.72960211e-02
      1.98712591e-02 4.52093482e-02 4.08599712e-02 1.09390197e-02
      4.01775315e-02 4.10296805e-02 1.33180199e-02 4.02717404e-02
      3.44860889e-02 2.10679807e-02 3.94726284e-02 3.45255584e-02
      2.48264894e-02 4.02553789e-02</_>
    <_>
      4.50555608e-02 1.91903003e-02 4.24492806e-02 2.95429807e-02
      2.35293508e-02 3.76903713e-02 4.12246399e-02 1.89798605e-02
      4.53677699e-02 4.41317298e-02 2.79287398e-02 4.63461913e-02
      4.41680215e-02 1.18454704e-02 4.48387191e-02 4.57405001e-02
      1.75142400e-02 4.44962606e-02 4.12545018e-02 1.00859599e-02
      4.04765606e-02 4.12571803e-02 1.34164495e-02 4.04444300e-02
      3.42958197e-02 1.86995398e-02 3.86491008e-02 3.50700803e-02
      2.59702392e-02 4.06018607e-02</_>
    <_>
      5.94946295e-02 4.08155210e-02 6.98129982e-02 4.22914587e-02
      3.85364182e-02 5.64040095e-02 8.05386007e-02 7.70554319e-02
      4.59789112e-02 6.86118975e-02 7.12565482e-02 3.37621309e-02
      8.50979835e-02 7.27208033e-02 4.76040989e-02 7.25479871e-02
      6.83610365e-02 2.75869407e-02 7.27432221e-02 5.39815687e-02
      5.07428497e-02 6.15212992e-02 5.55330217e-02 3.31922807e-02
      5.20787016e-02 4.07630913e-02 4.87094596e-02 4.51056696e-02
      4.79711406e-02 4.22513783e-02</_>
    <_>
      3.84695083e-02 2.18339805e-02 3.84392217e-02 2.44623702e-02
      3.00740600e-02 3.86853702e-02 3.99343893e-02 2.00313609e-02
      4.43361290e-02 4.20130715e-02 2.57369801e-02 4.51864600e-02
      4.29908112e-02 1.48386201e-02 4.32292596e-02 4.33285497e-02
      1.44814504e-02 4.31794114e-02 4.12092581e-02 1.22985598e-02
      3.94843407e-02 3.96640301e-02 1.02466997e-02 3.95151116e-02
      3.29503790e-02 1.50205400e-02 3.51122506e-02 3.35133299e-02
      2.29543597e-02 3.92062292e-02</_>
    <_>
      4.06246707e-02 1.70632508e-02 3.93893681e-02 2.70461496e-02
      2.63405405e-02 3.77030782e-02 3.98901291e-02 1.83010306e-02
      4.37043682e-02 4.29435708e-02 2.64174305e-02 4.57260385e-02
      4.20720801e-02 1.44106997e-02 4.23972793e-02 4.38763313e-02
      1.51190097e-02 4.35255803e-02 3.73848900e-02 1.41041400e-02
      3.48933712e-02 3.82797718e-02 9.21206828e-03 3.83826792e-02
      2.92919595e-02 1.69632602e-02 3.18906307e-02 3.22638191e-02
      2.25817803e-02 3.83375697e-02</_>
    <_>
      3.19036692e-02 4.73841317e-02 4.51367907e-02 1.17901899e-02
      4.39768285e-02 4.54957113e-02 9.12949964e-02 9.59431380e-02
      3.03637404e-02 7.27491230e-02 7.78098330e-02 2.85251103e-02
      4.37126011e-02 1.24024898e-02 4.46921103e-02 4.51612100e-02
      1.74770802e-02 4.38977815e-02 4.02348302e-02 1.10978000e-02
      3.88861895e-02 3.98381203e-02 1.13086803e-02 3.94944996e-02
      3.35281603e-02 1.74257495e-02 3.68395410e-02 3.39274406e-02
      2.40474492e-02 3.97487804e-02</_>
    <_>
      4.41748016e-02 1.63979102e-02 4.14969884e-02 2.96893101e-02
      2.01922599e-02 3.58337983e-02 4.30408902e-02 2.02877503e-02
      4.73462902e-02 4.54791710e-02 3.06713302e-02 4.63365689e-02
      4.69095483e-02 1.06675001e-02 4.80885208e-02 4.82775494e-02
      2.31497902e-02 4.45532314e-02 4.61607501e-02 4.79007605e-03
      4.63223904e-02 4.53215614e-02 2.24419106e-02 4.14485298e-02
      3.98255885e-02 1.90822594e-02 4.36300412e-02 3.81254889e-02
      3.11946701e-02 4.23769690e-02</_>
    <_>
      3.35817300e-02 4.62349392e-02 4.53946888e-02 1.39273498e-02
      4.31805588e-02 4.53314111e-02 8.31629932e-02 8.58394727e-02
      3.07811107e-02 7.24175274e-02 7.66895264e-02 2.67565008e-02
      4.35996093e-02 1.17346803e-02 4.47287410e-02 4.55523394e-02
      1.86783094e-02 4.37649116e-02 4.05511893e-02 9.64360498e-03
      3.96260098e-02 4.04025204e-02 1.27478000e-02 3.97401787e-02
      3.36952582e-02 1.75846796e-02 3.75035182e-02 3.43501717e-02
      2.52704192e-02 4.01056185e-02</_>
    <_>
      5.69247790e-02 5.04082516e-02 7.43405074e-02 4.06675488e-02
      4.51889001e-02 5.95910400e-02 8.36056396e-02 8.11335221e-02
      3.31971794e-02 7.01033324e-02 7.17897937e-02 2.32787691e-02
      9.13434774e-02 8.43833387e-02 3.49728204e-02 7.55645335e-02
      7.36111403e-02 1.71147808e-02 7.89961368e-02 6.75643310e-02
      4.60007712e-02 6.46424368e-02 6.24615587e-02 3.02618109e-02
      5.28739095e-02 4.00834903e-02 5.13811484e-02 4.49546613e-02
      4.75462712e-02 4.50613610e-02</_>
    <_>
      4.68307808e-02 3.24318707e-02 4.76472415e-02 2.87983101e-02
      3.15649696e-02 4.26726788e-02 4.11348306e-02 2.05221996e-02
      4.56842706e-02 4.50379886e-02 3.08632404e-02 4.57721017e-02
      4.20591794e-02 9.82451160e-03 4.31141108e-02 4.58421893e-02
      2.07452904e-02 4.30862792e-02 3.76932397e-02 7.68872816e-03
      3.74141894e-02 4.02257890e-02 1.55218402e-02 3.88781391e-02
      3.21597382e-02 1.95957795e-02 3.76228504e-02 3.46272402e-02
      2.81302501e-02 4.01612483e-02</_>
    <_>
      5.16009592e-02 1.24712102e-02 5.23663312e-02 3.96146215e-02
      1.01209898e-02 4.02869210e-02 4.23042811e-02 1.63592901e-02
      4.45821583e-02 4.25328389e-02 2.36303303e-02 4.57724705e-02
      4.65818793e-02 1.42712900e-02 4.58575785e-02 4.47179414e-02
      1.33073898e-02 4.47410010e-02 4.86357398e-02 3.28522897e-03
      4.87188399e-02 4.62062508e-02 1.91367008e-02 4.36319299e-02
      4.13496196e-02 1.58323906e-02 4.42617610e-02 3.77248488e-02
      2.63834205e-02 4.24115211e-02</_>
    <_>
      2.96494607e-02 5.19986488e-02 4.75822091e-02 8.31149984e-03
      4.57835495e-02 4.65129092e-02 4.19446491e-02 2.18159091e-02
      4.67021689e-02 4.58782911e-02 3.18347998e-02 4.57647815e-02
      4.56027314e-02 1.11004403e-02 4.69022691e-02 4.72526588e-02
      2.12340392e-02 4.43694517e-02 4.36558202e-02 4.55433410e-03
      4.37256992e-02 4.33021300e-02 1.84261799e-02 4.09828499e-02
      3.75274196e-02 1.83844808e-02 4.16936390e-02 3.69315892e-02
      2.94792205e-02 4.16414104e-02</_>
    <_>
      3.37141417e-02 4.63177115e-02 4.52570394e-02 1.39052896e-02
      4.29232493e-02 4.50702012e-02 9.06720981e-02 9.51525569e-02
      2.88921800e-02 7.28035569e-02 7.76823163e-02 2.76211295e-02
      4.37892117e-02 1.17493998e-02 4.49222997e-02 4.56331111e-02
      1.86932404e-02 4.38474789e-02 4.05505709e-02 9.96344071e-03
      3.95368785e-02 4.03063595e-02 1.24092503e-02 3.97210382e-02
      3.36480699e-02 1.75207201e-02 3.73387299e-02 3.42520103e-02
      2.49657892e-02 4.00274284e-02</_>
    <_>
      1.95876006e-02 7.60840699e-02 7.63200223e-02 1.31735196e-02
      6.16218001e-02 6.19118102e-02 8.50358382e-02 8.23690370e-02
      3.75283994e-02 7.10053220e-02 7.21405819e-02 2.88466495e-02
      4.13220190e-02 1.14443600e-02 4.24281992e-02 4.48740311e-02
      1.83617696e-02 4.31641601e-02 3.81768085e-02 1.00830300e-02
      3.73826809e-02 3.96405905e-02 1.30499499e-02 3.89697403e-02
      3.21337618e-02 1.72450393e-02 3.57635505e-02 3.38569507e-02
      2.45275404e-02 3.97350006e-02</_>
    <_>
      3.93208712e-02 7.17500299e-02 8.15632865e-02 3.01907305e-02
      6.41029626e-02 6.77680075e-02 8.56394693e-02 8.88344198e-02
      3.21947113e-02 7.12783337e-02 7.62434676e-02 2.74073109e-02
      9.45042893e-02 9.32867602e-02 1.52544696e-02 7.78636113e-02
      7.78692290e-02 2.32428010e-03 8.36522430e-02 8.74915123e-02
      3.50247100e-02 6.71137273e-02 7.31720179e-02 2.94943508e-02
      5.84370494e-02 7.19420165e-02 5.66194616e-02 4.57587019e-02
      6.66641295e-02 5.19259200e-02</_>
    <_>
      4.73873392e-02 2.42418293e-02 4.41673286e-02 2.98036207e-02
      2.43610106e-02 3.83807607e-02 6.58589527e-02 3.51965316e-02
      6.51761666e-02 5.76460585e-02 4.03146297e-02 5.43622710e-02
      4.65181991e-02 9.32033360e-03 4.74382415e-02 4.85102907e-02
      2.34711505e-02 4.48603593e-02 4.77126017e-02 6.68925699e-03
      4.78269793e-02 4.66986485e-02 2.46536098e-02 4.14526090e-02
      4.40764315e-02 2.89737508e-02 4.66622710e-02 4.19655405e-02
      4.16631587e-02 4.38768193e-02</_>
    <_>
      4.51771691e-02 1.57556906e-02 4.28085811e-02 3.06510292e-02
      2.09454093e-02 3.70920114e-02 4.05927300e-02 1.88631993e-02
      4.46666703e-02 4.35518511e-02 2.70003993e-02 4.61345315e-02
      4.30453606e-02 1.15117598e-02 4.31781784e-02 4.48163003e-02
      1.61686596e-02 4.39592116e-02 4.06728797e-02 1.27124097e-02
      3.94494310e-02 4.03308012e-02 1.16764801e-02 4.00241502e-02
      3.67569290e-02 1.80595107e-02 4.09391299e-02 3.65830101e-02
      2.78320592e-02 4.15085591e-02</_>
    <_>
      4.57740910e-02 5.12956306e-02 6.34316579e-02 2.86288802e-02
      4.73239683e-02 5.50564006e-02 4.13307585e-02 2.04076394e-02
      4.59234715e-02 4.54999208e-02 3.05688903e-02 4.64565381e-02
      4.26388606e-02 9.10898112e-03 4.33554910e-02 4.62142415e-02
      1.98576003e-02 4.39965911e-02 3.93499993e-02 9.73509066e-03
      3.90851609e-02 4.10565995e-02 1.47851901e-02 3.98787707e-02
      3.28792818e-02 2.07807496e-02 3.83432284e-02 3.44405808e-02
      2.58221403e-02 4.01029214e-02</_>
    <_>
      4.20320891e-02 3.38163190e-02 4.25839797e-02 2.35803109e-02
      3.37639414e-02 4.09604982e-02 7.04135299e-02 3.36341895e-02
      6.88256100e-02 5.69604710e-02 3.69387008e-02 5.31559512e-02
      4.24577296e-02 1.37460204e-02 4.30193394e-02 4.44509014e-02
      1.59012396e-02 4.38249409e-02 4.08603810e-02 1.35643901e-02
      3.91011797e-02 3.99799794e-02 1.04941297e-02 3.99015397e-02
      3.43368202e-02 2.17197500e-02 3.86908501e-02 3.37230489e-02
      2.36982703e-02 3.99088785e-02</_>
    <_>
      2.40155794e-02 4.54950184e-02 4.12863195e-02 3.11015802e-03
      4.68134098e-02 4.68839705e-02 4.96150814e-02 2.11964399e-02
      5.39411791e-02 4.65365984e-02 2.76241191e-02 4.87297289e-02
      5.73774390e-02 1.28496699e-02 5.87537102e-02 5.09149618e-02
      2.02065092e-02 4.89992686e-02 5.58313206e-02 2.43188790e-03
      5.58393002e-02 4.73322794e-02 1.70194693e-02 4.53634486e-02
      4.53363992e-02 1.60249602e-02 4.79979999e-02 3.90803590e-02
      2.70221792e-02 4.31328714e-02</_>
    <_>
      5.18821701e-02 2.14917306e-02 4.95427288e-02 3.46053690e-02
      2.25431193e-02 4.13004011e-02 4.35376614e-02 2.28115600e-02
      4.91478294e-02 4.54137288e-02 2.86969803e-02 4.69801910e-02
      4.57298383e-02 1.16263600e-02 4.66555618e-02 4.68045585e-02
      1.85873602e-02 4.52064909e-02 4.35214005e-02 8.44979286e-03
      4.29510288e-02 4.25728597e-02 1.41404402e-02 4.15182412e-02
      3.62344608e-02 1.70999207e-02 3.95707712e-02 3.56714390e-02
      2.49978695e-02 4.10412513e-02</_>
    <_>
      4.77537215e-02 2.45510191e-02 4.45057116e-02 3.00139692e-02
      2.42622606e-02 3.84872705e-02 7.55586103e-02 4.75769900e-02
      6.62114918e-02 6.18446395e-02 4.75407988e-02 5.04002310e-02
      4.68802899e-02 9.31667536e-03 4.77932394e-02 4.83919717e-02
      2.26289593e-02 4.51580994e-02 4.70764302e-02 5.27220499e-03
      4.73293103e-02 4.59057987e-02 2.22587697e-02 4.18083817e-02
      4.17131893e-02 2.38700900e-02 4.53194417e-02 4.04623188e-02
      3.72344814e-02 4.39740084e-02</_>
    <_>
      2.78456397e-02 3.58122587e-02 3.50580700e-02 9.70409904e-03
      4.06665318e-02 4.17562909e-02 3.91861908e-02 2.32864395e-02
      4.50612418e-02 4.20651697e-02 2.59397402e-02 4.56590503e-02
      4.12601084e-02 1.57443695e-02 4.10653092e-02 4.28315587e-02
      1.36943301e-02 4.29642797e-02 3.71446200e-02 1.51828304e-02
      3.41590084e-02 3.77960317e-02 8.33011046e-03 3.80377285e-02
      3.00647691e-02 1.79944504e-02 3.27725783e-02 3.23349796e-02
      2.25351192e-02 3.84700298e-02</_>
    <_>
      2.76891906e-02 8.26329365e-02 8.68791491e-02 2.40462106e-02
      6.66080713e-02 6.80844113e-02 7.94419274e-02 8.44991729e-02
      2.98446994e-02 7.02167824e-02 7.52400607e-02 2.96874195e-02
      8.72187167e-02 8.71400386e-02 7.04979012e-03 7.65691400e-02
      7.60052428e-02 1.15521802e-02 7.62099028e-02 7.96646774e-02
      3.05703804e-02 6.59451112e-02 7.17445835e-02 2.86050104e-02
      5.39297312e-02 6.97295889e-02 5.63639887e-02 4.39576097e-02
      6.80655017e-02 5.38194589e-02</_>
    <_>
      4.71823998e-02 3.55822891e-02 4.69375700e-02 2.77489200e-02
      3.08560003e-02 4.13008705e-02 9.24867094e-02 9.43789408e-02
      2.54818704e-02 7.36190230e-02 7.66865164e-02 2.37427801e-02
      4.30895612e-02 1.04542105e-02 4.34378982e-02 4.53278907e-02
      1.73707996e-02 4.40546386e-02 3.98934484e-02 1.26910796e-02
      3.86629887e-02 4.00554501e-02 1.17129097e-02 3.97525392e-02
      3.30264196e-02 2.06229705e-02 3.72897498e-02 3.36049311e-02
      2.39396002e-02 3.97335701e-02</_>
    <_>
      4.32323888e-02 2.02566609e-02 4.11510207e-02 2.82444302e-02
      2.51651108e-02 3.77209000e-02 4.09426913e-02 1.81175396e-02
      4.46673408e-02 4.29120287e-02 2.65018307e-02 4.55879383e-02
      4.29567695e-02 1.33858901e-02 4.36392911e-02 4.41159494e-02
      1.60799306e-02 4.33724187e-02 4.13384512e-02 9.25176404e-03
      4.05156314e-02 4.07650992e-02 1.31061599e-02 4.00075987e-02
      3.41022201e-02 1.65571608e-02 3.73900086e-02 3.44588198e-02
      2.49066800e-02 4.01732996e-02</_>
    <_>
      2.81542409e-02 6.92747608e-02 7.21142590e-02 1.78369991e-02
      6.02383688e-02 6.16865717e-02 6.82890564e-02 6.53702617e-02
      3.69541496e-02 6.65029511e-02 6.85326606e-02 2.70827003e-02
      5.42379804e-02 3.18989791e-02 4.58514206e-02 5.87611683e-02
      4.78137285e-02 3.56927402e-02 4.42746617e-02 1.57288592e-02
      4.27132994e-02 4.78863493e-02 3.39162983e-02 3.77940014e-02
      3.84672992e-02 2.96096802e-02 4.28215712e-02 3.99591401e-02
      4.26503792e-02 4.29793112e-02</_>
    <_>
      3.65071110e-02 6.75426275e-02 7.31112882e-02 2.34417897e-02
      5.55979088e-02 5.97742014e-02 9.07851309e-02 9.63566825e-02
      3.62729207e-02 7.29255080e-02 7.93108270e-02 3.17532085e-02
      1.00539699e-01 9.98827964e-02 1.49145396e-02 8.02311972e-02
      8.02821219e-02 6.47223694e-03 9.05911177e-02 9.28063169e-02
      2.61013806e-02 7.05343485e-02 7.40398467e-02 2.28969101e-02
      6.46011084e-02 8.25657994e-02 5.45671992e-02 4.87761796e-02
      6.92084208e-02 4.97757606e-02</_>
    <_>
      3.82072292e-02 3.48985083e-02 4.13255915e-02 2.01060604e-02
      3.71875986e-02 4.21729684e-02 4.22108583e-02 2.04575807e-02
      4.69049513e-02 4.49236296e-02 2.88219191e-02 4.66637611e-02
      4.44364697e-02 1.17676901e-02 4.52693105e-02 4.60656099e-02
      1.81120094e-02 4.46017310e-02 4.05616909e-02 9.73800104e-03
      3.97896618e-02 4.10773791e-02 1.36041800e-02 4.02214490e-02
      3.44547592e-02 1.91224497e-02 3.92424800e-02 3.54736112e-02
      2.70057097e-02 4.07503918e-02</_>
    <_>
      4.58305292e-02 3.92204598e-02 4.72059399e-02 2.65740007e-02
      3.15477215e-02 4.09739204e-02 9.10530835e-02 9.37052667e-02
      2.50429995e-02 7.26286098e-02 7.62440264e-02 2.38324106e-02
      4.14951406e-02 9.48417187e-03 4.24807891e-02 4.56062704e-02
      2.06630901e-02 4.28758413e-02 3.82067300e-02 8.43062438e-03
      3.81413884e-02 4.04803008e-02 1.56990308e-02 3.90299298e-02
      3.17271501e-02 2.10368093e-02 3.77070792e-02 3.37522291e-02
      2.63608005e-02 3.95065099e-02</_>
    <_>
      4.70661186e-02 2.59914901e-02 4.33285385e-02 2.93312296e-02
      2.33584698e-02 3.72763388e-02 4.06436101e-02 1.97139904e-02
      4.51634713e-02 4.38421182e-02 2.87023000e-02 4.56463210e-02
      4.17057090e-02 1.11319898e-02 4.28926907e-02 4.52220887e-02
      1.93415806e-02 4.30663712e-02 3.78369093e-02 8.86996556e-03
      3.71754616e-02 3.98021601e-02 1.38322599e-02 3.89185809e-02
      3.20803300e-02 1.86892208e-02 3.64706293e-02 3.37136090e-02
      2.52217297e-02 3.96811590e-02</_>
    <_>
      3.86536308e-02 2.19774209e-02 3.85732986e-02 2.45601702e-02
      3.00356206e-02 3.87146696e-02 3.97297107e-02 1.97213795e-02
      4.40575182e-02 4.20199186e-02 2.58580595e-02 4.51124199e-02
      4.29434702e-02 1.46273496e-02 4.32477593e-02 4.34137695e-02
      1.46916304e-02 4.31875512e-02 4.11037691e-02 1.20489001e-02
      3.94593999e-02 3.97113897e-02 1.04795098e-02 3.95214297e-02
      3.28960307e-02 1.50276404e-02 3.51266302e-02 3.35535482e-02
      2.30953302e-02 3.92602682e-02</_>
    <_>
      4.77159396e-02 3.76567803e-02 4.80860583e-02 2.81716902e-02
      3.09097506e-02 4.15757596e-02 9.23170075e-02 9.49311182e-02
      2.91424394e-02 7.34934285e-02 7.72819966e-02 2.63914093e-02
      4.25750017e-02 9.83361527e-03 4.34977189e-02 4.63639684e-02
      2.01491006e-02 4.40002717e-02 3.92860696e-02 9.52048134e-03
      3.87416892e-02 4.09298502e-02 1.41586401e-02 3.99416387e-02
      3.27923484e-02 2.00430304e-02 3.76663618e-02 3.42708416e-02
      2.52838098e-02 4.00922894e-02</_>
    <_>
      4.39727195e-02 2.00755298e-02 4.15203199e-02 2.83938795e-02
      2.49166805e-02 3.76819111e-02 4.03331406e-02 1.98120996e-02
      4.49092798e-02 4.37471606e-02 2.78855599e-02 4.59923483e-02
      4.34759893e-02 1.12185003e-02 4.39990908e-02 4.54090498e-02
      1.75425000e-02 4.41007018e-02 4.08797897e-02 9.74828284e-03
      4.03965116e-02 4.13107798e-02 1.43873999e-02 4.02401388e-02
      3.45209800e-02 1.86267104e-02 3.91167887e-02 3.55522595e-02
      2.74255201e-02 4.08787914e-02</_>
    <_>
      3.88150103e-02 2.17148103e-02 3.86490896e-02 2.47571804e-02
      2.98016891e-02 3.86608690e-02 3.95900905e-02 1.94428209e-02
      4.38498184e-02 4.20511588e-02 2.59860195e-02 4.50651683e-02
      4.28292118e-02 1.44523401e-02 4.31823991e-02 4.34625894e-02
      1.48511697e-02 4.31760587e-02 4.09085788e-02 1.19204698e-02
      3.93034182e-02 3.96903902e-02 1.06116403e-02 3.94790992e-02
      3.27862911e-02 1.50563298e-02 3.50858904e-02 3.35632712e-02
      2.32263599e-02 3.92905399e-02</_>
    <_>
      3.33945900e-02 7.58820921e-02 8.28796029e-02 2.78266706e-02
      6.98883906e-02 7.06248432e-02 8.27805325e-02 8.94985870e-02
      3.52601781e-02 7.14321285e-02 7.82142580e-02 3.29721086e-02
      9.27381590e-02 9.24564898e-02 8.05650931e-03 7.91367069e-02
      7.88698122e-02 6.60463097e-03 8.36202204e-02 8.81797224e-02
      3.04939691e-02 6.88147992e-02 7.44233206e-02 2.91260108e-02
      5.76672815e-02 8.05049911e-02 5.75623885e-02 4.55627106e-02
      7.12006167e-02 5.47548607e-02</_>
    <_>
      4.40728702e-02 1.38770100e-02 4.39891592e-02 3.21819708e-02
      9.08302236e-03 3.34388502e-02 4.64217216e-02 2.19962392e-02
      5.03282808e-02 4.83443215e-02 3.39055806e-02 4.75777388e-02
      4.77352887e-02 1.09023601e-02 4.89181504e-02 4.94257212e-02
      2.40725707e-02 4.53601405e-02 4.03189398e-02 8.49872362e-03
      3.98166403e-02 4.14040089e-02 1.48065602e-02 4.02246416e-02
      3.27387005e-02 1.83305498e-02 3.69495600e-02 3.44559811e-02
      2.56396402e-02 4.02707495e-02</_>
    <_>
      4.32343297e-02 1.82619896e-02 4.10626605e-02 2.85027791e-02
      2.44659893e-02 3.74813601e-02 4.08311784e-02 1.95997506e-02
      4.52053398e-02 4.36466411e-02 2.72260606e-02 4.61677089e-02
      4.31566983e-02 1.35902297e-02 4.38032188e-02 4.48300689e-02
      1.62380692e-02 4.40941602e-02 3.91047299e-02 1.23938099e-02
      3.73246893e-02 3.95596810e-02 1.06355799e-02 3.93714197e-02
      3.16441506e-02 1.75965093e-02 3.48054208e-02 3.34112681e-02
      2.36935206e-02 3.94166112e-02</_>
    <_>
      4.56110686e-02 1.87202394e-02 4.25183699e-02 2.99104191e-02
      2.14948598e-02 3.67406383e-02 4.34272513e-02 1.92848705e-02
      4.74541187e-02 4.57087494e-02 2.97860801e-02 4.71566617e-02
      4.59738001e-02 1.03722000e-02 4.68476415e-02 4.72082011e-02
      1.97842494e-02 4.51263115e-02 4.34556492e-02 8.75946786e-03
      4.31615598e-02 4.25246283e-02 1.50818601e-02 4.11920696e-02
      3.81450914e-02 1.83780696e-02 4.23219800e-02 3.68072093e-02
      2.73968298e-02 4.14367095e-02</_>
    <_>
      3.28931212e-02 7.16490969e-02 7.87328705e-02 2.64821500e-02
      6.84348568e-02 6.93520308e-02 8.27807412e-02 9.02544707e-02
      3.68206687e-02 7.13774115e-02 7.86855966e-02 3.43800411e-02
      9.29470733e-02 9.27474722e-02 7.00875791e-03 7.93620571e-02
      7.90384933e-02 7.25406688e-03 8.26729015e-02 8.78242925e-02
      3.12531516e-02 6.86267018e-02 7.45475814e-02 3.03996708e-02
      5.64395897e-02 8.08415711e-02 5.84590510e-02 4.49856110e-02
      7.15205893e-02 5.58982790e-02</_>
    <_>
      4.38802503e-02 4.16918583e-02 4.79995012e-02 2.40989793e-02
      3.62415202e-02 4.33746502e-02 9.09543708e-02 9.38924775e-02
      3.77462283e-02 7.26038069e-02 7.72517323e-02 3.18590812e-02
      1.00718603e-01 1.00573100e-01 1.56764407e-02 7.95419067e-02
      7.96158612e-02 9.29425843e-03 3.95288095e-02 6.89481013e-03
      3.96585688e-02 4.20255810e-02 1.79017000e-02 3.98325101e-02
      3.28118689e-02 2.03453004e-02 3.86076197e-02 3.56189609e-02
      2.91542709e-02 4.06108201e-02</_>
    <_>
      4.17806208e-02 3.35272215e-02 4.23618294e-02 2.34564207e-02
      3.38204615e-02 4.09386717e-02 7.01591074e-02 3.29000205e-02
      6.89118207e-02 5.66481799e-02 3.63180600e-02 5.32340594e-02
      4.23508510e-02 1.38169900e-02 4.28848304e-02 4.43681590e-02
      1.57931000e-02 4.37805094e-02 4.08999287e-02 1.34397503e-02
      3.91773507e-02 4.00251783e-02 1.05885305e-02 3.99240591e-02
      3.43640782e-02 2.16996297e-02 3.87207791e-02 3.37388888e-02
      2.37137601e-02 3.99173796e-02</_>
    <_>
      4.34820801e-02 1.32516604e-02 4.14232500e-02 3.03180106e-02
      1.64755303e-02 3.44659090e-02 6.85094073e-02 3.40882204e-02
      6.78483397e-02 5.57638295e-02 3.76640894e-02 5.31589910e-02
      4.10403311e-02 1.22942701e-02 4.19258215e-02 4.39934805e-02
      1.70822702e-02 4.27934900e-02 3.88646685e-02 8.39117263e-03
      3.84365283e-02 4.03647982e-02 1.47508504e-02 3.92199010e-02
      3.28069106e-02 1.85375791e-02 3.73807512e-02 3.42763104e-02
      2.63384804e-02 4.00543697e-02</_>
    <_>
      4.44836989e-02 1.57173593e-02 4.16898206e-02 3.02085206e-02
      1.45255104e-02 3.34319212e-02 4.18265387e-02 1.99443195e-02
      4.62666117e-02 4.46184613e-02 2.95540299e-02 4.60095592e-02
      4.47295718e-02 1.08777303e-02 4.59436513e-02 4.66563702e-02
      2.06519999e-02 4.40198183e-02 4.33394201e-02 4.85761417e-03
      4.34397794e-02 4.31948602e-02 1.84731204e-02 4.08267193e-02
      3.76538709e-02 1.76289696e-02 4.15478311e-02 3.67812999e-02
      2.86912806e-02 4.17036712e-02</_>
    <_>
      2.76358798e-02 6.47679195e-02 6.44164234e-02 1.22058596e-02
      4.98277992e-02 5.11778407e-02 9.15718600e-02 9.18848813e-02
      2.52842903e-02 7.32148811e-02 7.53056929e-02 2.20000595e-02
      5.80300316e-02 1.21544302e-02 5.89801110e-02 5.25604598e-02
      2.53013894e-02 4.86031696e-02 5.44107109e-02 5.50057413e-03
      5.42470403e-02 4.62016612e-02 1.46884900e-02 4.48604599e-02
      4.37001288e-02 1.54903997e-02 4.62649688e-02 3.77390906e-02
      2.47563999e-02 4.23693992e-02</_>
    <_>
      2.70156600e-02 5.91285899e-02 5.37091307e-02 6.09791884e-03
      4.75356802e-02 4.79252189e-02 9.23774019e-02 9.37045291e-02
      1.62786804e-02 7.37375766e-02 7.57149681e-02 1.89000200e-02
      9.82503295e-02 9.89965200e-02 2.81680804e-02 7.83820897e-02
      7.95062333e-02 1.88471992e-02 4.93151695e-02 6.07252494e-03
      4.92897518e-02 4.51003611e-02 1.64987892e-02 4.32304591e-02
      4.13676500e-02 1.81822199e-02 4.48233709e-02 3.68397906e-02
      2.45892592e-02 4.16792110e-02</_>
    <_>
      3.92916612e-02 2.22441591e-02 4.04413007e-02 2.53392998e-02
      3.24367397e-02 4.11554798e-02 4.67756614e-02 2.28106491e-02
      5.16184196e-02 4.44719009e-02 2.58571003e-02 4.78299186e-02
      5.17286099e-02 1.53898504e-02 5.23316711e-02 4.71282303e-02
      1.52992597e-02 4.69578095e-02 4.80608009e-02 1.29200704e-02
      4.63126116e-02 4.23149318e-02 9.17028263e-03 4.22157794e-02
      3.90027203e-02 1.58549994e-02 4.09986600e-02 3.56661193e-02
      2.27676202e-02 4.09142897e-02</_>
    <_>
      4.07796986e-02 3.14575993e-02 4.13271710e-02 2.32980698e-02
      3.36387306e-02 4.07129191e-02 6.84689879e-02 2.87093408e-02
      6.91687092e-02 5.46666384e-02 3.27359401e-02 5.36021218e-02
      4.34992909e-02 1.40840402e-02 4.40195315e-02 4.47104089e-02
      1.57143101e-02 4.41845395e-02 4.18030284e-02 1.34926504e-02
      4.00571786e-02 4.02925797e-02 1.04814405e-02 4.01954986e-02
      3.51000391e-02 2.15364099e-02 3.91226299e-02 3.38799208e-02
      2.34639794e-02 4.00190912e-02</_>
    <_>
      5.92975095e-02 2.58084405e-02 5.99579886e-02 4.13242616e-02
      2.39226799e-02 4.75532003e-02 6.87372163e-02 3.76704298e-02
      6.70303106e-02 5.68084195e-02 4.30429094e-02 5.16789891e-02
      8.01488310e-02 4.44661304e-02 6.86243400e-02 6.46354929e-02
      4.54813987e-02 4.74488512e-02 7.59947821e-02 4.51134890e-02
      6.26415834e-02 5.93758598e-02 4.45424691e-02 4.35629413e-02
      5.94184883e-02 4.24215011e-02 5.79408891e-02 4.57575098e-02
      4.47844490e-02 4.82324511e-02</_>
    <_>
      2.02873405e-02 7.25558028e-02 7.33035207e-02 1.40506998e-02
      6.00310601e-02 6.05149008e-02 8.39582682e-02 9.06463414e-02
      3.74548696e-02 6.84247464e-02 7.57581666e-02 3.27523686e-02
      9.43945870e-02 9.40588415e-02 8.95064510e-03 7.58474171e-02
      7.58768171e-02 2.21882807e-03 8.36494565e-02 8.81961733e-02
      3.05223204e-02 6.55901134e-02 7.09302276e-02 2.70113703e-02
      5.72379790e-02 8.10874403e-02 5.84901497e-02 4.34540287e-02
      6.84652627e-02 5.29625192e-02</_>
    <_>
      5.11482097e-02 9.66463145e-03 5.04206009e-02 3.81538495e-02
      2.08974499e-02 4.32458110e-02 4.30726297e-02 2.33993102e-02
      4.81929816e-02 4.28958088e-02 2.52091102e-02 4.67916094e-02
      4.71175797e-02 1.47080198e-02 4.76604402e-02 4.58721407e-02
      1.55674899e-02 4.55005094e-02 4.64519709e-02 8.74380581e-03
      4.57290001e-02 4.32097614e-02 1.32080903e-02 4.23495397e-02
      3.91048416e-02 1.45448996e-02 4.15361188e-02 3.67636085e-02
      2.51084603e-02 4.18654718e-02</_>
    <_>
      3.70060094e-02 3.75140794e-02 4.21197116e-02 1.87798291e-02
      3.85519788e-02 4.28143702e-02 4.10809405e-02 2.09021103e-02
      4.60313112e-02 4.46221493e-02 2.90512498e-02 4.61283997e-02
      4.34661284e-02 1.24618001e-02 4.44201492e-02 4.49469201e-02
      1.74068604e-02 4.36940491e-02 4.11564782e-02 9.32019018e-03
      4.03112285e-02 4.06893604e-02 1.30248498e-02 3.99527811e-02
      3.44511904e-02 1.78398602e-02 3.83366682e-02 3.45709398e-02
      2.53958292e-02 4.02307808e-02</_>
    <_>
      3.75242382e-02 3.61014009e-02 4.06280607e-02 1.90141406e-02
      3.66982482e-02 4.12053317e-02 4.18737195e-02 2.09137108e-02
      4.66393195e-02 4.49893810e-02 3.02165095e-02 4.59008887e-02
      4.45798784e-02 1.11265201e-02 4.56926115e-02 4.62085418e-02
      1.94399897e-02 4.41314802e-02 4.18127701e-02 8.06130655e-03
      4.12641801e-02 4.13585193e-02 1.42038604e-02 4.03162688e-02
      3.56123485e-02 1.75111908e-02 3.95538509e-02 3.54190394e-02
      2.65284292e-02 4.07944396e-02</_>
    <_>
      7.30308285e-03 8.52580070e-02 8.55686665e-02 1.83504391e-02
      7.03392476e-02 6.83140531e-02 7.70324022e-02 8.01295564e-02
      2.79912595e-02 6.71888813e-02 7.16838166e-02 2.50717402e-02
      9.14770216e-02 9.21772420e-02 1.22255497e-02 7.42928386e-02
      7.40148425e-02 1.40641397e-02 7.72971213e-02 7.85030127e-02
      3.32641304e-02 6.34533167e-02 6.82759732e-02 2.65918300e-02
      5.49458899e-02 6.42746985e-02 4.87570800e-02 4.44986001e-02
      6.17584810e-02 4.58850600e-02</_>
    <_>
      2.07229592e-02 7.53702372e-02 7.57811219e-02 1.36249103e-02
      6.12845309e-02 6.17262982e-02 8.34686011e-02 8.07822496e-02
      3.74637693e-02 7.10150376e-02 7.21634999e-02 2.88072191e-02
      4.16799411e-02 1.11309104e-02 4.28662114e-02 4.53198515e-02
      1.91540793e-02 4.32706513e-02 3.83919887e-02 8.39064084e-03
      3.79335508e-02 4.02670503e-02 1.45270098e-02 3.91876698e-02
      3.23728696e-02 1.68564208e-02 3.61447595e-02 3.43399607e-02
      2.54981909e-02 4.01643701e-02</_>
    <_>
      4.33427095e-02 3.20090204e-02 4.47383188e-02 2.56533492e-02
      3.35167088e-02 4.21630293e-02 5.62533997e-02 4.93840799e-02
      4.16699909e-02 5.96687607e-02 5.98609783e-02 3.20676602e-02
      5.11354208e-02 1.80773195e-02 5.01647517e-02 5.36142997e-02
      3.45136300e-02 4.29424308e-02 4.98077795e-02 1.23027004e-02
      4.89171110e-02 4.85843383e-02 2.99420506e-02 4.11777496e-02
      4.22265790e-02 2.47894004e-02 4.54176888e-02 4.02696095e-02
      3.71879786e-02 4.25171703e-02</_>
    <_>
      4.78466414e-02 2.23398507e-02 4.31602597e-02 3.03209405e-02
      1.88353192e-02 3.55077907e-02 9.08528566e-02 9.06891897e-02
      3.06352600e-02 7.28545636e-02 7.50812516e-02 2.50775293e-02
      4.80945110e-02 1.07448399e-02 4.92779091e-02 4.91794683e-02
      2.30540000e-02 4.56705987e-02 4.44169492e-02 6.27650600e-03
      4.44309302e-02 4.36443090e-02 1.74151305e-02 4.15616706e-02
      3.69066298e-02 1.80274993e-02 4.10491116e-02 3.65528315e-02
      2.76196599e-02 4.14781794e-02</_>
    <_>
      1.34782502e-02 7.32571036e-02 7.20472783e-02 7.04914378e-03
      5.82806617e-02 5.79341017e-02 8.56923833e-02 9.22040716e-02
      3.49899083e-02 6.89376593e-02 7.57655874e-02 3.14575695e-02
      9.56426933e-02 9.55663770e-02 3.84266302e-03 7.60818869e-02
      7.60756135e-02 9.98234726e-04 8.40252936e-02 8.99038464e-02
      3.31309997e-02 6.53573573e-02 7.14768469e-02 2.89381500e-02
      5.70085011e-02 8.25221315e-02 6.05196208e-02 4.30903994e-02
      6.88935965e-02 5.38708307e-02</_>
    <_>
      4.67064418e-02 2.15697791e-02 4.26100194e-02 2.98939794e-02
      1.98769793e-02 3.57460491e-02 9.09994766e-02 9.24558192e-02
      1.95866209e-02 7.25286007e-02 7.49686211e-02 1.98674891e-02
      4.36223000e-02 1.05388900e-02 4.48090695e-02 4.64179702e-02
      2.08413191e-02 4.36585583e-02 4.06783298e-02 6.30229898e-03
      4.07516286e-02 4.19350713e-02 1.74925700e-02 3.98839489e-02
      3.43117304e-02 1.90891493e-02 3.92234214e-02 3.52208801e-02
      2.76634898e-02 4.04608101e-02</_>
    <_>
      2.19108406e-02 7.38075376e-02 7.58487284e-02 1.72080994e-02
      6.25492111e-02 6.30777702e-02 8.29877704e-02 8.99332911e-02
      3.85905914e-02 6.81353435e-02 7.58119673e-02 3.34908888e-02
      9.34142172e-02 9.29803327e-02 1.08470796e-02 7.56895691e-02
      7.57481009e-02 3.06610204e-03 8.30451474e-02 8.69946033e-02
      2.92699393e-02 6.56486228e-02 7.06586465e-02 2.61355098e-02
      5.70625886e-02 8.00623521e-02 5.72655797e-02 4.35932912e-02
      6.82293475e-02 5.25049604e-02</_>
    <_>
      1.88459009e-02 7.95978904e-02 8.13812017e-02 1.82394609e-02
      6.24188706e-02 6.32638782e-02 8.47605765e-02 8.85275379e-02
      2.63904408e-02 6.92216009e-02 7.36438036e-02 2.55007502e-02
      9.12905335e-02 9.09055173e-02 1.31080505e-02 7.44964033e-02
      7.47141987e-02 5.70743717e-03 8.00820664e-02 8.09893236e-02
      3.49503607e-02 6.40441701e-02 6.84286207e-02 2.72934102e-02
      5.80793507e-02 6.58841133e-02 5.44340387e-02 4.48676310e-02
      6.09047711e-02 4.86559682e-02</_>
    <_>
      3.58276814e-02 7.03502595e-02 7.73086026e-02 2.53497902e-02
      5.95270395e-02 6.32823929e-02 8.76113474e-02 9.31153819e-02
      3.71535011e-02 7.14126527e-02 7.80319273e-02 3.19865197e-02
      9.76225063e-02 9.69196633e-02 1.34970900e-02 7.88886175e-02
      7.89318085e-02 3.88795999e-03 8.73422176e-02 9.09015983e-02
      3.03154998e-02 6.87048137e-02 7.35644028e-02 2.64230799e-02
      6.12460189e-02 8.30478668e-02 5.77096194e-02 4.64102887e-02
      6.99932277e-02 5.25239483e-02</_>
    <_>
      4.47900817e-02 1.37441596e-02 4.39113788e-02 3.22696008e-02
      1.06251296e-02 3.39651704e-02 4.66220006e-02 2.15530097e-02
      5.07124215e-02 4.79105301e-02 3.26581709e-02 4.76819389e-02
      4.81355898e-02 1.11960601e-02 4.94115315e-02 4.92933393e-02
      2.32896805e-02 4.56003696e-02 4.16296311e-02 6.59976201e-03
      4.14570011e-02 4.24783714e-02 1.66734401e-02 4.07392792e-02
      3.39083709e-02 1.78544596e-02 3.80678512e-02 3.52296196e-02
      2.65315101e-02 4.08062488e-02</_>
    <_>
      5.86475395e-02 4.21597697e-02 6.88527226e-02 4.14067991e-02
      3.53108607e-02 5.39437607e-02 8.42657164e-02 7.77485520e-02
      5.03284410e-02 6.83649927e-02 6.83013126e-02 3.75079215e-02
      9.07641128e-02 7.40349814e-02 5.37247695e-02 7.26392120e-02
      6.42927513e-02 3.48293819e-02 7.82720670e-02 5.46264313e-02
      5.80908507e-02 6.17141910e-02 5.12868203e-02 3.97362784e-02
      5.50380386e-02 3.21454108e-02 5.51779307e-02 4.41361405e-02
      3.94598506e-02 4.66611311e-02</_>
    <_>
      1.81432609e-02 7.67166466e-02 7.66567364e-02 1.23289898e-02
      6.17455617e-02 6.18645884e-02 8.52534771e-02 8.22533965e-02
      3.81929688e-02 7.08750263e-02 7.18047619e-02 2.92801093e-02
      4.08301018e-02 1.14336303e-02 4.19194810e-02 4.46427315e-02
      1.82366297e-02 4.29676697e-02 3.80301811e-02 1.11818304e-02
      3.69887389e-02 3.92361209e-02 1.21653201e-02 3.88055705e-02
      3.18297595e-02 1.77346095e-02 3.54443118e-02 3.35007198e-02
      2.40091104e-02 3.94523703e-02</_>
    <_>
      4.57878485e-02 3.02730594e-02 4.37371694e-02 2.72021908e-02
      2.89460998e-02 3.95156704e-02 9.20085832e-02 9.40893888e-02
      2.96510607e-02 7.33706132e-02 7.68952072e-02 2.62440909e-02
      7.85620436e-02 3.25413011e-02 7.41479620e-02 6.14973716e-02
      3.37113291e-02 5.36796302e-02 4.18704599e-02 6.45545311e-03
      4.20388393e-02 4.29144092e-02 1.83962993e-02 4.04886417e-02
      3.48610692e-02 2.07171105e-02 4.05352786e-02 3.60997505e-02
      2.93374807e-02 4.03627604e-02</_>
    <_>
      3.17868590e-02 7.82673433e-02 8.43209699e-02 2.92283092e-02
      7.28540868e-02 7.23994225e-02 8.04597065e-02 8.34429264e-02
      3.27725299e-02 7.00468570e-02 7.51571134e-02 2.74276696e-02
      8.88565183e-02 8.69419277e-02 1.85110793e-02 7.63692632e-02
      7.63957500e-02 3.22701596e-03 8.00688565e-02 8.19219500e-02
      3.30810212e-02 6.65696636e-02 7.17480481e-02 2.73047108e-02
      5.67478910e-02 7.30262920e-02 5.47032095e-02 4.54102792e-02
      6.79401085e-02 5.17240204e-02</_>
    <_>
      2.99528800e-02 4.89543714e-02 4.58142608e-02 9.54690482e-03
      4.54385206e-02 4.64219004e-02 9.09301788e-02 9.61176232e-02
      3.29439715e-02 7.25209266e-02 7.79431984e-02 3.06079593e-02
      4.40971889e-02 1.20323002e-02 4.51798216e-02 4.55800295e-02
      1.82030499e-02 4.40230593e-02 4.02250402e-02 1.10805398e-02
      3.88817303e-02 3.98434699e-02 1.13218604e-02 3.94971110e-02
      3.35422792e-02 1.69666503e-02 3.66373211e-02 3.39283608e-02
      2.38959808e-02 3.97225916e-02</_>
    <_>
      2.36300491e-02 4.71496508e-02 4.24949117e-02 2.19913409e-03
      4.74971794e-02 4.74997684e-02 4.99741286e-02 2.08100807e-02
      5.41316606e-02 4.67426591e-02 2.78681703e-02 4.88141216e-02
      5.77084683e-02 1.28638297e-02 5.90900518e-02 5.10121398e-02
      2.02904195e-02 4.90676388e-02 5.60224801e-02 2.66207103e-03
      5.60341999e-02 4.73207906e-02 1.68779902e-02 4.53672409e-02
      4.55701612e-02 1.62751600e-02 4.82844412e-02 3.91229615e-02
      2.70578992e-02 4.30559218e-02</_>
    <_>
      3.93467993e-02 3.08494307e-02 3.95165794e-02 2.14297101e-02
      3.37041505e-02 3.97992916e-02 9.24791619e-02 9.40295383e-02
      1.70056708e-02 7.38880187e-02 7.61627406e-02 1.90614294e-02
      1.00060001e-01 9.90470797e-02 1.96203496e-02 7.97149315e-02
      7.97160864e-02 1.00607201e-02 5.46952784e-02 2.91205593e-03
      5.46653010e-02 4.69360687e-02 1.66193191e-02 4.51154895e-02
      4.43822704e-02 1.44051304e-02 4.66611497e-02 3.84363905e-02
      2.58164592e-02 4.30017784e-02</_>
    <_>
      4.47373912e-02 1.64028294e-02 4.16722596e-02 3.01706400e-02
      1.44638503e-02 3.33486088e-02 4.16864306e-02 1.97854694e-02
      4.60807309e-02 4.45252918e-02 2.94701699e-02 4.59757783e-02
      4.40268889e-02 1.11632403e-02 4.52820212e-02 4.62994315e-02
      2.02124994e-02 4.38301712e-02 4.17181887e-02 5.99347008e-03
      4.16043997e-02 4.21369486e-02 1.66625995e-02 4.03990112e-02
      3.62941995e-02 1.71973798e-02 4.01504114e-02 3.60356905e-02
      2.75353491e-02 4.12866287e-02</_>
    <_>
      2.20767204e-02 6.59478828e-02 6.32107705e-02 5.91054419e-03
      5.53455316e-02 5.54025583e-02 7.63877407e-02 7.66601190e-02
      2.65337396e-02 6.96299374e-02 7.23932385e-02 2.03702394e-02
      8.15066025e-02 8.13316032e-02 5.97526412e-03 7.42435232e-02
      7.35193864e-02 1.13450699e-02 8.08093771e-02 8.45607668e-02
      2.51969509e-02 6.49060532e-02 6.81611896e-02 2.91027296e-02
      5.87718412e-02 7.40986168e-02 4.67775799e-02 4.90757003e-02
      6.73742965e-02 4.61884886e-02</_>
    <_>
      3.00294999e-02 4.54585701e-02 4.25064787e-02 9.68399271e-03
      4.37219292e-02 4.47598882e-02 4.32341807e-02 2.15699598e-02
      4.74722497e-02 4.65818495e-02 3.28782611e-02 4.62233387e-02
      4.94388491e-02 1.29542798e-02 5.02300486e-02 5.08109890e-02
      2.77619008e-02 4.45488803e-02 5.05183190e-02 1.75237209e-02
      4.83324006e-02 4.99302298e-02 3.46251689e-02 3.96506786e-02
      4.37428504e-02 2.63594408e-02 4.65850607e-02 4.09642197e-02
      3.88265401e-02 4.36244905e-02</_>
    <_>
      5.98590188e-02 4.00477014e-02 6.89447671e-02 4.24084514e-02
      3.46489996e-02 5.42023107e-02 7.86938816e-02 7.01098368e-02
      5.83988018e-02 6.55309409e-02 6.60213828e-02 4.38812785e-02
      8.75341520e-02 7.12745711e-02 5.43592796e-02 7.17727914e-02
      6.46875873e-02 3.43298689e-02 8.00078064e-02 6.32819831e-02
      5.15778288e-02 6.35990426e-02 5.74853383e-02 3.42545286e-02
      6.00702688e-02 5.07304817e-02 5.43449707e-02 4.70337197e-02
      5.10965101e-02 4.58890498e-02</_>
    <_>
      3.97602394e-02 4.29444984e-02 4.90701608e-02 2.14469396e-02
      4.14038599e-02 4.66257297e-02 6.10819496e-02 6.01068698e-02
      3.47781517e-02 6.24742396e-02 6.61318526e-02 2.58617401e-02
      6.45015463e-02 5.73636591e-02 3.06622591e-02 6.66959882e-02
      6.54991716e-02 1.33179696e-02 5.14982082e-02 2.19121594e-02
      4.78102900e-02 5.13094813e-02 3.82206999e-02 3.84586789e-02
      4.33351882e-02 3.16627882e-02 4.52109315e-02 4.18191701e-02
      4.34222482e-02 4.21157405e-02</_>
    <_>
      2.91375108e-02 4.07269411e-02 3.51201408e-02 6.69882214e-03
      3.99232507e-02 4.04176898e-02 9.12690833e-02 9.20729116e-02
      2.69322991e-02 7.32853264e-02 7.59439766e-02 2.31274702e-02
      5.97229116e-02 1.17424298e-02 6.07843585e-02 5.22983186e-02
      2.30610594e-02 4.94127013e-02 5.46633117e-02 8.79621506e-03
      5.40898293e-02 4.53092083e-02 1.17910197e-02 4.47064005e-02
      4.44378518e-02 1.72733609e-02 4.68436517e-02 3.69638316e-02
      2.26165093e-02 4.20184806e-02</_>
    <_>
      3.64241712e-02 3.37732285e-02 3.73970084e-02 1.72509793e-02
      3.53769809e-02 3.92573588e-02 8.78116563e-02 7.97088072e-02
      4.43500094e-02 7.00626075e-02 6.73631579e-02 3.30140106e-02
      4.89704795e-02 1.29703004e-02 4.88645993e-02 4.60802801e-02
      1.50711797e-02 4.56774496e-02 4.66676801e-02 1.55781899e-02
      4.43917699e-02 4.12429310e-02 8.70963931e-03 4.14477289e-02
      3.84869687e-02 2.07399502e-02 4.11964282e-02 3.45798917e-02
      2.24296097e-02 4.04910594e-02</_>
    <_>
      4.72366512e-02 3.32014598e-02 4.52439003e-02 2.82499809e-02
      2.73715891e-02 3.90763991e-02 9.12784189e-02 9.37377587e-02
      2.26459596e-02 7.27601126e-02 7.60757923e-02 2.24204808e-02
      4.23190109e-02 9.89724882e-03 4.34127487e-02 4.60541397e-02
      2.10915599e-02 4.31409702e-02 3.93366590e-02 7.86999241e-03
      3.93272787e-02 4.10356112e-02 1.62099507e-02 3.93989086e-02
      3.30945700e-02 2.02421602e-02 3.85844298e-02 3.44077498e-02
      2.67348699e-02 3.98783796e-02</_>
    <_>
      5.24279810e-02 1.86536908e-02 4.90881614e-02 3.58539708e-02
      9.12355445e-03 3.69893089e-02 5.36856204e-02 2.13080291e-02
      5.71791604e-02 4.89486009e-02 3.08290403e-02 4.95894998e-02
      5.73940501e-02 1.27390698e-02 5.84930591e-02 5.21474890e-02
      2.42351703e-02 4.84282896e-02 5.52136712e-02 3.17965308e-03
      5.53051382e-02 4.70982902e-02 1.78359300e-02 4.47172895e-02
      4.48273495e-02 1.62828993e-02 4.76694517e-02 3.76874618e-02
      2.46295203e-02 4.21203710e-02</_>
    <_>
      2.51131505e-02 4.41041701e-02 3.90190110e-02 1.18836900e-02
      4.31613810e-02 4.46080007e-02 8.98648128e-02 8.60125199e-02
      3.58737707e-02 7.16283172e-02 7.12120011e-02 2.79566292e-02
      4.64450903e-02 1.16010197e-02 4.66033295e-02 4.58338000e-02
      1.64543092e-02 4.49461490e-02 4.41750214e-02 1.44430399e-02
      4.22950499e-02 4.08540890e-02 9.85737517e-03 4.08899486e-02
      3.79254408e-02 2.04637293e-02 4.11818698e-02 3.47735398e-02
      2.30455399e-02 4.05935794e-02</_>
    <_>
      4.49522883e-02 4.74451818e-02 5.69189712e-02 2.69406196e-02
      4.11761999e-02 4.92057391e-02 7.03753829e-02 5.97893298e-02
      5.09371907e-02 6.47062510e-02 6.35009930e-02 3.77182811e-02
      7.31989369e-02 6.07942492e-02 4.31258082e-02 6.92254826e-02
      6.55492172e-02 2.44715307e-02 6.47776574e-02 4.86262105e-02
      4.55503501e-02 5.95073290e-02 5.56285791e-02 3.04737408e-02
      5.00159487e-02 4.48816717e-02 4.60267104e-02 4.49852906e-02
      5.21786809e-02 4.15127315e-02</_>
    <_>
      4.58722487e-02 3.91383618e-02 4.71844189e-02 2.66169794e-02
      3.14685889e-02 4.09408100e-02 9.10317227e-02 9.36528072e-02
      2.50353701e-02 7.26196170e-02 7.62173831e-02 2.37968396e-02
      4.15006205e-02 9.43822321e-03 4.24815118e-02 4.56272215e-02
      2.07189806e-02 4.28734086e-02 3.81710716e-02 8.41284916e-03
      3.81176583e-02 4.04809713e-02 1.57471299e-02 3.90148610e-02
      3.16899009e-02 2.10593902e-02 3.76964994e-02 3.37453596e-02
      2.63971891e-02 3.94965596e-02</_>
    <_>
      4.40302007e-02 3.85235101e-02 4.56860699e-02 2.47364696e-02
      3.31824906e-02 4.11573984e-02 9.02361274e-02 9.39739197e-02
      2.62975097e-02 7.23005533e-02 7.65700415e-02 2.57467106e-02
      4.25857194e-02 1.10473502e-02 4.37248200e-02 4.55407202e-02
      1.93452798e-02 4.34260592e-02 3.94802503e-02 9.08782054e-03
      3.88210304e-02 4.03572693e-02 1.36835799e-02 3.94885503e-02
      3.29801813e-02 1.91737898e-02 3.76052000e-02 3.40785198e-02
      2.54843105e-02 3.98825482e-02</_>
    <_>
      4.33100201e-02 2.56444998e-02 4.14636992e-02 2.62567308e-02
      2.88900901e-02 3.89137603e-02 4.16136608e-02 2.15884801e-02
      4.68802601e-02 4.46583405e-02 2.86072697e-02 4.64376882e-02
      4.48938794e-02 1.12722004e-02 4.59238701e-02 4.67154905e-02
      1.94139704e-02 4.47241515e-02 4.31277007e-02 5.61252283e-03
      4.30951007e-02 4.33582403e-02 1.76602602e-02 4.12876718e-02
      5.93688115e-02 6.14117384e-02 5.13656996e-02 4.86919507e-02
      6.09417111e-02 4.63996008e-02</_>
    <_>
      4.69464511e-02 3.59967798e-02 4.60955091e-02 2.73557007e-02
      3.01637296e-02 4.04308699e-02 9.16992724e-02 9.41917226e-02
      3.28954794e-02 7.31265619e-02 7.71333799e-02 2.85381600e-02
      4.43296582e-02 9.06763040e-03 4.51266989e-02 4.69717681e-02
      2.09356807e-02 4.43596393e-02 4.07850817e-02 7.70134199e-03
      4.08798605e-02 4.22052406e-02 1.71428993e-02 4.02138494e-02
      3.42228003e-02 2.03306600e-02 3.96911092e-02 3.53743099e-02
      2.73067895e-02 4.04216200e-02</_>
    <_>
      4.14172411e-02 5.70213497e-02 6.55989274e-02 2.52984595e-02
      5.14687188e-02 5.69641590e-02 4.20749895e-02 2.07707491e-02
      4.66680788e-02 4.59543690e-02 3.10410392e-02 4.66166288e-02
      4.34885696e-02 9.21299681e-03 4.43239212e-02 4.68174294e-02
      2.06564795e-02 4.43009809e-02 3.95642295e-02 9.27704945e-03
      3.94068807e-02 4.13134210e-02 1.52851297e-02 3.99690382e-02
      3.30099612e-02 2.14411002e-02 3.88715193e-02 3.44390683e-02
      2.60043200e-02 4.00059409e-02</_>
    <_>
      3.08610406e-02 7.73836970e-02 8.33085626e-02 2.70014405e-02
      7.02999830e-02 7.05778524e-02 8.20594206e-02 8.58402625e-02
      3.90281789e-02 7.01503530e-02 7.64869303e-02 3.18914093e-02
      9.04633775e-02 8.71661678e-02 2.44207196e-02 7.68507868e-02
      7.64766932e-02 7.64324609e-03 8.05173367e-02 8.08500573e-02
      3.62129509e-02 6.64608777e-02 7.11413175e-02 2.80840900e-02
      5.64680696e-02 7.60416910e-02 5.86512908e-02 4.44149897e-02
      6.94646984e-02 5.45545109e-02</_>
    <_>
      4.41627204e-02 4.13051918e-02 4.77921814e-02 2.43833493e-02
      3.57468501e-02 4.30981182e-02 9.12572667e-02 9.25024971e-02
      3.57410796e-02 7.26625398e-02 7.58968890e-02 3.01292408e-02
      4.42561395e-02 9.90952458e-03 4.52833809e-02 4.72202711e-02
      2.14003809e-02 4.43463698e-02 3.98878418e-02 8.08245596e-03
      3.96131389e-02 4.15696613e-02 1.56149203e-02 4.01484706e-02
      3.28916609e-02 1.91802196e-02 3.77970301e-02 3.49022187e-02
      2.66368706e-02 4.04873900e-02</_>
    <_>
      4.34302688e-02 2.31131800e-02 4.13399413e-02 2.71040499e-02
      2.74327192e-02 3.84543091e-02 4.18642908e-02 1.93366595e-02
      4.61129397e-02 4.45618518e-02 2.84031108e-02 4.65646088e-02
      4.49469797e-02 1.13593098e-02 4.56720106e-02 4.62074615e-02
      1.81508306e-02 4.47332002e-02 4.17868383e-02 9.00347624e-03
      4.11537290e-02 4.16752696e-02 1.41839897e-02 4.06462401e-02
      3.61101702e-02 1.83236599e-02 4.03382890e-02 3.58782485e-02
      2.67906599e-02 4.10470404e-02</_>
    <_>
      2.81983707e-02 8.04229528e-02 8.48150030e-02 2.88163908e-02
      7.53338486e-02 7.34065473e-02 7.96644092e-02 8.24187100e-02
      3.31712812e-02 6.98725730e-02 7.49483928e-02 2.74369698e-02
      8.72120485e-02 8.48518535e-02 2.02933699e-02 7.58854300e-02
      7.58793429e-02 4.10423102e-03 7.93098137e-02 8.01464766e-02
      3.17855515e-02 6.66267499e-02 7.11142868e-02 2.56487206e-02
      5.74021414e-02 7.07608983e-02 4.93426099e-02 4.67601307e-02
      6.62679374e-02 4.77181189e-02</_>
    <_>
      2.98748706e-02 4.86638583e-02 4.57405895e-02 9.64706857e-03
      4.55386713e-02 4.65433598e-02 9.10414532e-02 9.63691324e-02
      3.24032418e-02 7.25737363e-02 7.81923831e-02 3.00249401e-02
      4.38897796e-02 1.23476796e-02 4.48903106e-02 4.52658385e-02
      1.76152494e-02 4.39497605e-02 4.02881503e-02 1.11365896e-02
      3.89275588e-02 3.98405492e-02 1.12702297e-02 3.95039096e-02
      3.36240493e-02 1.72125697e-02 3.68257985e-02 3.39524783e-02
      2.39752792e-02 3.97542901e-02</_>
    <_>
      4.80828397e-02 1.77379306e-02 4.54651006e-02 3.26603688e-02
      2.06971206e-02 3.86359803e-02 4.13022786e-02 2.09218096e-02
      4.62534092e-02 4.40508910e-02 2.76577696e-02 4.63852398e-02
      4.37653288e-02 1.23395501e-02 4.40990515e-02 4.51033004e-02
      1.62569806e-02 4.42914292e-02 4.16979901e-02 1.37865497e-02
      4.00799215e-02 4.03342992e-02 1.06068300e-02 4.02596295e-02
      3.62084508e-02 1.83204096e-02 3.95466387e-02 3.50911394e-02
      2.40036100e-02 4.06422988e-02</_>
    <_>
